digraph Tree {
node [shape=box] ;
0 [label="X[1] <= 0.2412\nmse = 0.1687\nsamples = 47437\nvalue = 0.6194"] ;
1 [label="X[1] <= 0.046\nmse = 0.1585\nsamples = 38398\nvalue = 0.6967"] ;
0 -> 1 [labeldistance=2.5, labelangle=45, headlabel="True"] ;
2 [label="mse = 0.0\nsamples = 386\nvalue = 0.0"] ;
1 -> 2 ;
3 [label="X[1] <= 0.1995\nmse = 0.1551\nsamples = 38012\nvalue = 0.7037"] ;
1 -> 3 ;
4 [label="X[1] <= 0.1268\nmse = 0.1479\nsamples = 23990\nvalue = 0.7481"] ;
3 -> 4 ;
5 [label="X[2] <= 109.7739\nmse = 0.1421\nsamples = 1789\nvalue = 0.6299"] ;
4 -> 5 ;
6 [label="X[2] <= 104.4728\nmse = 0.1475\nsamples = 1404\nvalue = 0.6694"] ;
5 -> 6 ;
7 [label="X[2] <= 104.3933\nmse = 0.1574\nsamples = 509\nvalue = 0.7415"] ;
6 -> 7 ;
8 [label="X[2] <= 102.7194\nmse = 0.1563\nsamples = 498\nvalue = 0.7339"] ;
7 -> 8 ;
9 [label="X[2] <= 98.4113\nmse = 0.1598\nsamples = 290\nvalue = 0.7693"] ;
8 -> 9 ;
10 [label="X[1] <= 0.1117\nmse = 0.158\nsamples = 109\nvalue = 0.6907"] ;
9 -> 10 ;
11 [label="X[1] <= 0.107\nmse = 0.3697\nsamples = 11\nvalue = 1.0018"] ;
10 -> 11 ;
12 [label="mse = 0.0008\nsamples = 4\nvalue = 0.4111"] ;
11 -> 12 ;
13 [label="mse = 0.2672\nsamples = 7\nvalue = 1.3394"] ;
11 -> 13 ;
14 [label="X[2] <= 93.8368\nmse = 0.1222\nsamples = 98\nvalue = 0.6558"] ;
10 -> 14 ;
15 [label="mse = 0.1374\nsamples = 62\nvalue = 0.7425"] ;
14 -> 15 ;
16 [label="mse = 0.0606\nsamples = 36\nvalue = 0.5065"] ;
14 -> 16 ;
17 [label="X[1] <= 0.1259\nmse = 0.1548\nsamples = 181\nvalue = 0.8166"] ;
9 -> 17 ;
18 [label="X[1] <= 0.1224\nmse = 0.1582\nsamples = 162\nvalue = 0.8372"] ;
17 -> 18 ;
19 [label="mse = 0.1521\nsamples = 122\nvalue = 0.7985"] ;
18 -> 19 ;
20 [label="mse = 0.1581\nsamples = 40\nvalue = 0.9554"] ;
18 -> 20 ;
21 [label="X[2] <= 100.8487\nmse = 0.0918\nsamples = 19\nvalue = 0.6409"] ;
17 -> 21 ;
22 [label="mse = 0.0933\nsamples = 8\nvalue = 0.4809"] ;
21 -> 22 ;
23 [label="mse = 0.0586\nsamples = 11\nvalue = 0.7573"] ;
21 -> 23 ;
24 [label="X[1] <= 0.1221\nmse = 0.1473\nsamples = 208\nvalue = 0.6845"] ;
8 -> 24 ;
25 [label="X[2] <= 102.8204\nmse = 0.1315\nsamples = 141\nvalue = 0.6426"] ;
24 -> 25 ;
26 [label="X[2] <= 102.7673\nmse = 0.0496\nsamples = 9\nvalue = 0.4433"] ;
25 -> 26 ;
27 [label="mse = 0.0209\nsamples = 3\nvalue = 0.7314"] ;
26 -> 27 ;
28 [label="mse = 0.0017\nsamples = 6\nvalue = 0.2992"] ;
26 -> 28 ;
29 [label="X[2] <= 102.935\nmse = 0.1342\nsamples = 132\nvalue = 0.6562"] ;
25 -> 29 ;
30 [label="mse = 0.1175\nsamples = 9\nvalue = 0.948"] ;
29 -> 30 ;
31 [label="mse = 0.1287\nsamples = 123\nvalue = 0.6349"] ;
29 -> 31 ;
32 [label="X[1] <= 0.1221\nmse = 0.1691\nsamples = 67\nvalue = 0.7726"] ;
24 -> 32 ;
33 [label="X[2] <= 103.66\nmse = 0.1054\nsamples = 2\nvalue = 1.4903"] ;
32 -> 33 ;
34 [label="mse = 0.0\nsamples = 1\nvalue = 1.815"] ;
33 -> 34 ;
35 [label="mse = 0.0\nsamples = 1\nvalue = 1.1657"] ;
33 -> 35 ;
36 [label="X[2] <= 103.9149\nmse = 0.1547\nsamples = 65\nvalue = 0.7505"] ;
32 -> 36 ;
37 [label="mse = 0.1247\nsamples = 39\nvalue = 0.6759"] ;
36 -> 37 ;
38 [label="mse = 0.1788\nsamples = 26\nvalue = 0.8624"] ;
36 -> 38 ;
39 [label="X[2] <= 104.4666\nmse = 0.0826\nsamples = 11\nvalue = 1.0888"] ;
7 -> 39 ;
40 [label="X[1] <= 0.1181\nmse = 0.0537\nsamples = 9\nvalue = 1.0084"] ;
39 -> 40 ;
41 [label="X[2] <= 104.4491\nmse = 0.0384\nsamples = 6\nvalue = 1.1088"] ;
40 -> 41 ;
42 [label="X[2] <= 104.4364\nmse = 0.022\nsamples = 3\nvalue = 1.2137"] ;
41 -> 42 ;
43 [label="mse = 0.0013\nsamples = 2\nvalue = 1.1109"] ;
42 -> 43 ;
44 [label="mse = 0.0\nsamples = 1\nvalue = 1.4195"] ;
42 -> 44 ;
45 [label="X[1] <= 0.1175\nmse = 0.0327\nsamples = 3\nvalue = 1.0039"] ;
41 -> 45 ;
46 [label="mse = 0.0064\nsamples = 2\nvalue = 0.8847"] ;
45 -> 46 ;
47 [label="mse = 0.0\nsamples = 1\nvalue = 1.2422"] ;
45 -> 47 ;
48 [label="X[1] <= 0.1234\nmse = 0.024\nsamples = 3\nvalue = 0.8077"] ;
40 -> 48 ;
49 [label="X[1] <= 0.1207\nmse = 0.0056\nsamples = 2\nvalue = 0.7069"] ;
48 -> 49 ;
50 [label="mse = 0.0\nsamples = 1\nvalue = 0.6322"] ;
49 -> 50 ;
51 [label="mse = -0.0\nsamples = 1\nvalue = 0.7817"] ;
49 -> 51 ;
52 [label="mse = 0.0\nsamples = 1\nvalue = 1.0093"] ;
48 -> 52 ;
53 [label="X[2] <= 104.4704\nmse = 0.0528\nsamples = 2\nvalue = 1.4506"] ;
39 -> 53 ;
54 [label="mse = 0.0\nsamples = 1\nvalue = 1.6803"] ;
53 -> 54 ;
55 [label="mse = 0.0\nsamples = 1\nvalue = 1.2209"] ;
53 -> 55 ;
56 [label="X[1] <= 0.1206\nmse = 0.1372\nsamples = 895\nvalue = 0.6284"] ;
6 -> 56 ;
57 [label="X[2] <= 109.7581\nmse = 0.1295\nsamples = 529\nvalue = 0.5914"] ;
56 -> 57 ;
58 [label="X[1] <= 0.1045\nmse = 0.1279\nsamples = 527\nvalue = 0.5889"] ;
57 -> 58 ;
59 [label="X[2] <= 106.4787\nmse = 0.0465\nsamples = 32\nvalue = 0.4344"] ;
58 -> 59 ;
60 [label="X[2] <= 105.1652\nmse = 0.1158\nsamples = 6\nvalue = 0.6452"] ;
59 -> 60 ;
61 [label="mse = 0.0108\nsamples = 3\nvalue = 0.3751"] ;
60 -> 61 ;
62 [label="mse = 0.0748\nsamples = 3\nvalue = 0.9154"] ;
60 -> 62 ;
63 [label="X[2] <= 108.9464\nmse = 0.0179\nsamples = 26\nvalue = 0.3858"] ;
59 -> 63 ;
64 [label="mse = 0.023\nsamples = 18\nvalue = 0.4101"] ;
63 -> 64 ;
65 [label="mse = 0.0022\nsamples = 8\nvalue = 0.3311"] ;
63 -> 65 ;
66 [label="X[1] <= 0.1191\nmse = 0.1315\nsamples = 495\nvalue = 0.5988"] ;
58 -> 66 ;
67 [label="X[1] <= 0.1188\nmse = 0.1343\nsamples = 438\nvalue = 0.6127"] ;
66 -> 67 ;
68 [label="mse = 0.1321\nsamples = 430\nvalue = 0.6073"] ;
67 -> 68 ;
69 [label="mse = 0.1684\nsamples = 8\nvalue = 0.9"] ;
67 -> 69 ;
70 [label="X[2] <= 107.9709\nmse = 0.0976\nsamples = 57\nvalue = 0.4926"] ;
66 -> 70 ;
71 [label="mse = 0.1175\nsamples = 35\nvalue = 0.5759"] ;
70 -> 71 ;
72 [label="mse = 0.0374\nsamples = 22\nvalue = 0.3599"] ;
70 -> 72 ;
73 [label="X[2] <= 109.7628\nmse = 0.1078\nsamples = 2\nvalue = 1.2503"] ;
57 -> 73 ;
74 [label="mse = 0.0\nsamples = 1\nvalue = 1.5787"] ;
73 -> 74 ;
75 [label="mse = 0.0\nsamples = 1\nvalue = 0.9219"] ;
73 -> 75 ;
76 [label="X[1] <= 0.1206\nmse = 0.1436\nsamples = 366\nvalue = 0.682"] ;
56 -> 76 ;
77 [label="X[2] <= 105.498\nmse = 0.0754\nsamples = 3\nvalue = 1.6599"] ;
76 -> 77 ;
78 [label="mse = 0.0\nsamples = 1\nvalue = 1.2716"] ;
77 -> 78 ;
79 [label="X[2] <= 107.2968\nmse = 0.0001\nsamples = 2\nvalue = 1.8541"] ;
77 -> 79 ;
80 [label="mse = 0.0\nsamples = 1\nvalue = 1.8455"] ;
79 -> 80 ;
81 [label="mse = 0.0\nsamples = 1\nvalue = 1.8627"] ;
79 -> 81 ;
82 [label="X[1] <= 0.1268\nmse = 0.1362\nsamples = 363\nvalue = 0.6739"] ;
76 -> 82 ;
83 [label="X[2] <= 106.8989\nmse = 0.136\nsamples = 360\nvalue = 0.6772"] ;
82 -> 83 ;
84 [label="X[1] <= 0.1224\nmse = 0.1531\nsamples = 174\nvalue = 0.7138"] ;
83 -> 84 ;
85 [label="mse = 0.0906\nsamples = 43\nvalue = 0.5645"] ;
84 -> 85 ;
86 [label="mse = 0.1639\nsamples = 131\nvalue = 0.7627"] ;
84 -> 86 ;
87 [label="X[1] <= 0.1219\nmse = 0.1176\nsamples = 186\nvalue = 0.643"] ;
83 -> 87 ;
88 [label="mse = 0.1438\nsamples = 28\nvalue = 0.8736"] ;
87 -> 88 ;
89 [label="mse = 0.1018\nsamples = 158\nvalue = 0.6021"] ;
87 -> 89 ;
90 [label="X[1] <= 0.1268\nmse = 0.0019\nsamples = 3\nvalue = 0.28"] ;
82 -> 90 ;
91 [label="X[2] <= 105.4807\nmse = 0.0017\nsamples = 2\nvalue = 0.3004"] ;
90 -> 91 ;
92 [label="mse = 0.0\nsamples = 1\nvalue = 0.3412"] ;
91 -> 92 ;
93 [label="mse = 0.0\nsamples = 1\nvalue = 0.2596"] ;
91 -> 93 ;
94 [label="mse = -0.0\nsamples = 1\nvalue = 0.2392"] ;
90 -> 94 ;
95 [label="X[1] <= 0.1173\nmse = 0.0959\nsamples = 385\nvalue = 0.4858"] ;
5 -> 95 ;
96 [label="X[2] <= 110.148\nmse = 0.0702\nsamples = 149\nvalue = 0.4234"] ;
95 -> 96 ;
97 [label="X[2] <= 110.0954\nmse = 0.0744\nsamples = 36\nvalue = 0.4924"] ;
96 -> 97 ;
98 [label="X[1] <= 0.1165\nmse = 0.049\nsamples = 32\nvalue = 0.4495"] ;
97 -> 98 ;
99 [label="X[2] <= 109.9875\nmse = 0.0392\nsamples = 28\nvalue = 0.4226"] ;
98 -> 99 ;
100 [label="X[2] <= 109.9849\nmse = 0.0471\nsamples = 20\nvalue = 0.4654"] ;
99 -> 100 ;
101 [label="mse = 0.0384\nsamples = 19\nvalue = 0.4417"] ;
100 -> 101 ;
102 [label="mse = -0.0\nsamples = 1\nvalue = 0.9156"] ;
100 -> 102 ;
103 [label="X[2] <= 110.0446\nmse = 0.0034\nsamples = 8\nvalue = 0.3155"] ;
99 -> 103 ;
104 [label="mse = 0.0024\nsamples = 3\nvalue = 0.3671"] ;
103 -> 104 ;
105 [label="mse = 0.0014\nsamples = 5\nvalue = 0.2846"] ;
103 -> 105 ;
106 [label="X[1] <= 0.1167\nmse = 0.077\nsamples = 4\nvalue = 0.6382"] ;
98 -> 106 ;
107 [label="X[2] <= 109.9693\nmse = 0.0156\nsamples = 2\nvalue = 0.9012"] ;
106 -> 107 ;
108 [label="mse = 0.0\nsamples = 1\nvalue = 1.026"] ;
107 -> 108 ;
109 [label="mse = -0.0\nsamples = 1\nvalue = 0.7763"] ;
107 -> 109 ;
110 [label="X[2] <= 109.9132\nmse = 0.0\nsamples = 2\nvalue = 0.3751"] ;
106 -> 110 ;
111 [label="mse = 0.0\nsamples = 1\nvalue = 0.373"] ;
110 -> 111 ;
112 [label="mse = 0.0\nsamples = 1\nvalue = 0.3773"] ;
110 -> 112 ;
113 [label="X[1] <= 0.1159\nmse = 0.1453\nsamples = 4\nvalue = 0.8354"] ;
97 -> 113 ;
114 [label="X[1] <= 0.1091\nmse = 0.0627\nsamples = 3\nvalue = 1.0164"] ;
113 -> 114 ;
115 [label="mse = 0.0\nsamples = 1\nvalue = 0.6629"] ;
114 -> 115 ;
116 [label="X[2] <= 110.118\nmse = 0.0003\nsamples = 2\nvalue = 1.1932"] ;
114 -> 116 ;
117 [label="mse = 0.0\nsamples = 1\nvalue = 1.2099"] ;
116 -> 117 ;
118 [label="mse = -0.0\nsamples = 1\nvalue = 1.1764"] ;
116 -> 118 ;
119 [label="mse = 0.0\nsamples = 1\nvalue = 0.2923"] ;
113 -> 119 ;
120 [label="X[1] <= 0.1167\nmse = 0.0669\nsamples = 113\nvalue = 0.4014"] ;
96 -> 120 ;
121 [label="X[2] <= 110.3354\nmse = 0.0709\nsamples = 104\nvalue = 0.4132"] ;
120 -> 121 ;
122 [label="X[1] <= 0.1096\nmse = 0.008\nsamples = 13\nvalue = 0.3191"] ;
121 -> 122 ;
123 [label="X[2] <= 110.1793\nmse = 0.0108\nsamples = 6\nvalue = 0.3675"] ;
122 -> 123 ;
124 [label="mse = 0.0015\nsamples = 2\nvalue = 0.2524"] ;
123 -> 124 ;
125 [label="mse = 0.0055\nsamples = 4\nvalue = 0.4251"] ;
123 -> 125 ;
126 [label="X[1] <= 0.1141\nmse = 0.0018\nsamples = 7\nvalue = 0.2776"] ;
122 -> 126 ;
127 [label="mse = 0.0019\nsamples = 3\nvalue = 0.2517"] ;
126 -> 127 ;
128 [label="mse = 0.0008\nsamples = 4\nvalue = 0.297"] ;
126 -> 128 ;
129 [label="X[2] <= 110.3555\nmse = 0.0784\nsamples = 91\nvalue = 0.4266"] ;
121 -> 129 ;
130 [label="mse = 0.0\nsamples = 1\nvalue = 1.0731"] ;
129 -> 130 ;
131 [label="X[1] <= 0.1095\nmse = 0.0746\nsamples = 90\nvalue = 0.4195"] ;
129 -> 131 ;
132 [label="mse = 0.1003\nsamples = 25\nvalue = 0.4796"] ;
131 -> 132 ;
133 [label="mse = 0.0628\nsamples = 65\nvalue = 0.3963"] ;
131 -> 133 ;
134 [label="X[1] <= 0.1168\nmse = 0.0004\nsamples = 9\nvalue = 0.2646"] ;
120 -> 134 ;
135 [label="mse = 0.0\nsamples = 1\nvalue = 0.3077"] ;
134 -> 135 ;
136 [label="X[2] <= 111.3974\nmse = 0.0001\nsamples = 8\nvalue = 0.2592"] ;
134 -> 136 ;
137 [label="X[2] <= 111.0066\nmse = 0.0001\nsamples = 5\nvalue = 0.2647"] ;
136 -> 137 ;
138 [label="mse = 0.0001\nsamples = 3\nvalue = 0.2586"] ;
137 -> 138 ;
139 [label="mse = 0.0\nsamples = 2\nvalue = 0.2738"] ;
137 -> 139 ;
140 [label="X[2] <= 112.2717\nmse = 0.0\nsamples = 3\nvalue = 0.2501"] ;
136 -> 140 ;
141 [label="mse = 0.0\nsamples = 2\nvalue = 0.246"] ;
140 -> 141 ;
142 [label="mse = 0.0\nsamples = 1\nvalue = 0.2585"] ;
140 -> 142 ;
143 [label="X[2] <= 110.6974\nmse = 0.108\nsamples = 236\nvalue = 0.5251"] ;
95 -> 143 ;
144 [label="X[2] <= 110.3118\nmse = 0.0823\nsamples = 82\nvalue = 0.5856"] ;
143 -> 144 ;
145 [label="X[1] <= 0.1255\nmse = 0.0628\nsamples = 54\nvalue = 0.5108"] ;
144 -> 145 ;
146 [label="X[2] <= 110.3036\nmse = 0.0629\nsamples = 50\nvalue = 0.5294"] ;
145 -> 146 ;
147 [label="X[2] <= 110.2593\nmse = 0.0627\nsamples = 48\nvalue = 0.5394"] ;
146 -> 147 ;
148 [label="mse = 0.0572\nsamples = 46\nvalue = 0.5233"] ;
147 -> 148 ;
149 [label="mse = 0.0466\nsamples = 2\nvalue = 0.9101"] ;
147 -> 149 ;
150 [label="X[2] <= 110.3098\nmse = 0.0067\nsamples = 2\nvalue = 0.288"] ;
146 -> 150 ;
151 [label="mse = 0.0\nsamples = 1\nvalue = 0.2062"] ;
150 -> 151 ;
152 [label="mse = 0.0\nsamples = 1\nvalue = 0.3699"] ;
150 -> 152 ;
153 [label="X[2] <= 109.8394\nmse = 0.0039\nsamples = 4\nvalue = 0.2788"] ;
145 -> 153 ;
154 [label="mse = 0.0\nsamples = 1\nvalue = 0.3846"] ;
153 -> 154 ;
155 [label="X[2] <= 109.9307\nmse = 0.0003\nsamples = 3\nvalue = 0.2435"] ;
153 -> 155 ;
156 [label="mse = 0.0\nsamples = 1\nvalue = 0.2656"] ;
155 -> 156 ;
157 [label="mse = 0.0\nsamples = 2\nvalue = 0.2325"] ;
155 -> 157 ;
158 [label="X[1] <= 0.1183\nmse = 0.0882\nsamples = 28\nvalue = 0.7297"] ;
144 -> 158 ;
159 [label="X[2] <= 110.52\nmse = 0.0034\nsamples = 2\nvalue = 0.3316"] ;
158 -> 159 ;
160 [label="mse = 0.0\nsamples = 1\nvalue = 0.2731"] ;
159 -> 160 ;
161 [label="mse = 0.0\nsamples = 1\nvalue = 0.3902"] ;
159 -> 161 ;
162 [label="X[1] <= 0.1215\nmse = 0.0816\nsamples = 26\nvalue = 0.7604"] ;
158 -> 162 ;
163 [label="X[1] <= 0.1189\nmse = 0.0902\nsamples = 9\nvalue = 0.9163"] ;
162 -> 163 ;
164 [label="mse = 0.0033\nsamples = 3\nvalue = 0.6077"] ;
163 -> 164 ;
165 [label="mse = 0.0622\nsamples = 6\nvalue = 1.0706"] ;
163 -> 165 ;
166 [label="X[2] <= 110.5119\nmse = 0.0574\nsamples = 17\nvalue = 0.6778"] ;
162 -> 166 ;
167 [label="mse = 0.0467\nsamples = 6\nvalue = 0.5291"] ;
166 -> 167 ;
168 [label="mse = 0.0447\nsamples = 11\nvalue = 0.7589"] ;
166 -> 168 ;
169 [label="X[1] <= 0.1253\nmse = 0.1188\nsamples = 154\nvalue = 0.493"] ;
143 -> 169 ;
170 [label="X[1] <= 0.1178\nmse = 0.0964\nsamples = 123\nvalue = 0.4595"] ;
169 -> 170 ;
171 [label="X[1] <= 0.1178\nmse = 0.267\nsamples = 6\nvalue = 0.7558"] ;
170 -> 171 ;
172 [label="X[1] <= 0.1175\nmse = 0.1261\nsamples = 5\nvalue = 0.5758"] ;
171 -> 172 ;
173 [label="mse = 0.0963\nsamples = 2\nvalue = 0.9173"] ;
172 -> 173 ;
174 [label="mse = 0.0163\nsamples = 3\nvalue = 0.3482"] ;
172 -> 174 ;
175 [label="mse = -0.0\nsamples = 1\nvalue = 1.6557"] ;
171 -> 175 ;
176 [label="X[1] <= 0.1192\nmse = 0.0829\nsamples = 117\nvalue = 0.4444"] ;
170 -> 176 ;
177 [label="X[2] <= 114.6298\nmse = 0.0118\nsamples = 14\nvalue = 0.3234"] ;
176 -> 177 ;
178 [label="mse = 0.0068\nsamples = 13\nvalue = 0.3028"] ;
177 -> 178 ;
179 [label="mse = 0.0\nsamples = 1\nvalue = 0.591"] ;
177 -> 179 ;
180 [label="X[1] <= 0.1195\nmse = 0.0903\nsamples = 103\nvalue = 0.4608"] ;
176 -> 180 ;
181 [label="mse = 0.0149\nsamples = 3\nvalue = 1.2042"] ;
180 -> 181 ;
182 [label="mse = 0.0755\nsamples = 100\nvalue = 0.4385"] ;
180 -> 182 ;
183 [label="X[2] <= 112.454\nmse = 0.1855\nsamples = 31\nvalue = 0.6256"] ;
169 -> 183 ;
184 [label="X[2] <= 111.7331\nmse = 0.2362\nsamples = 16\nvalue = 0.7537"] ;
183 -> 184 ;
185 [label="X[1] <= 0.1268\nmse = 0.05\nsamples = 11\nvalue = 0.5426"] ;
184 -> 185 ;
186 [label="mse = 0.0473\nsamples = 10\nvalue = 0.569"] ;
185 -> 186 ;
187 [label="mse = 0.0\nsamples = 1\nvalue = 0.2783"] ;
185 -> 187 ;
188 [label="X[2] <= 111.9044\nmse = 0.332\nsamples = 5\nvalue = 1.2182"] ;
184 -> 188 ;
189 [label="mse = 0.0\nsamples = 1\nvalue = 2.257"] ;
188 -> 189 ;
190 [label="mse = 0.0778\nsamples = 4\nvalue = 0.9585"] ;
188 -> 190 ;
191 [label="X[2] <= 114.3562\nmse = 0.0952\nsamples = 15\nvalue = 0.4889"] ;
183 -> 191 ;
192 [label="X[1] <= 0.126\nmse = 0.0655\nsamples = 9\nvalue = 0.397"] ;
191 -> 192 ;
193 [label="mse = 0.013\nsamples = 5\nvalue = 0.2998"] ;
192 -> 193 ;
194 [label="mse = 0.1045\nsamples = 4\nvalue = 0.5185"] ;
192 -> 194 ;
195 [label="X[2] <= 114.4766\nmse = 0.1082\nsamples = 6\nvalue = 0.6269"] ;
191 -> 195 ;
196 [label="mse = 0.0\nsamples = 1\nvalue = 1.2852"] ;
195 -> 196 ;
197 [label="mse = 0.0258\nsamples = 5\nvalue = 0.4952"] ;
195 -> 197 ;
198 [label="X[2] <= 63.6481\nmse = 0.1472\nsamples = 22201\nvalue = 0.7576"] ;
4 -> 198 ;
199 [label="X[1] <= 0.1786\nmse = 0.5005\nsamples = 104\nvalue = 1.1804"] ;
198 -> 199 ;
200 [label="X[2] <= 59.4574\nmse = 0.2342\nsamples = 23\nvalue = 0.6354"] ;
199 -> 200 ;
201 [label="X[1] <= 0.17\nmse = 0.0153\nsamples = 7\nvalue = 0.4172"] ;
200 -> 201 ;
202 [label="X[2] <= 59.167\nmse = 0.0044\nsamples = 4\nvalue = 0.3328"] ;
201 -> 202 ;
203 [label="X[1] <= 0.1637\nmse = 0.0034\nsamples = 3\nvalue = 0.3576"] ;
202 -> 203 ;
204 [label="X[0] <= 0.0\nmse = 0.0001\nsamples = 2\nvalue = 0.3986"] ;
203 -> 204 ;
205 [label="mse = 0.0\nsamples = 1\nvalue = 0.4102"] ;
204 -> 205 ;
206 [label="mse = 0.0\nsamples = 1\nvalue = 0.387"] ;
204 -> 206 ;
207 [label="mse = -0.0\nsamples = 1\nvalue = 0.2757"] ;
203 -> 207 ;
208 [label="mse = 0.0\nsamples = 1\nvalue = 0.2584"] ;
202 -> 208 ;
209 [label="X[1] <= 0.1773\nmse = 0.0076\nsamples = 3\nvalue = 0.5297"] ;
201 -> 209 ;
210 [label="X[1] <= 0.1746\nmse = 0.0027\nsamples = 2\nvalue = 0.5834"] ;
209 -> 210 ;
211 [label="mse = 0.0\nsamples = 1\nvalue = 0.5314"] ;
210 -> 211 ;
212 [label="mse = 0.0\nsamples = 1\nvalue = 0.6355"] ;
210 -> 212 ;
213 [label="mse = -0.0\nsamples = 1\nvalue = 0.4222"] ;
209 -> 213 ;
214 [label="X[2] <= 59.8108\nmse = 0.3\nsamples = 16\nvalue = 0.7309"] ;
200 -> 214 ;
215 [label="mse = 0.0\nsamples = 1\nvalue = 2.1012"] ;
214 -> 215 ;
216 [label="X[2] <= 60.751\nmse = 0.1865\nsamples = 15\nvalue = 0.6396"] ;
214 -> 216 ;
217 [label="X[2] <= 60.5965\nmse = 0.3186\nsamples = 5\nvalue = 0.9143"] ;
216 -> 217 ;
218 [label="X[1] <= 0.1667\nmse = 0.0143\nsamples = 3\nvalue = 0.5302"] ;
217 -> 218 ;
219 [label="mse = 0.0\nsamples = 1\nvalue = 0.361"] ;
218 -> 219 ;
220 [label="mse = 0.0\nsamples = 2\nvalue = 0.6148"] ;
218 -> 220 ;
221 [label="X[2] <= 60.7179\nmse = 0.2218\nsamples = 2\nvalue = 1.4903"] ;
217 -> 221 ;
222 [label="mse = 0.0\nsamples = 1\nvalue = 1.9614"] ;
221 -> 222 ;
223 [label="mse = -0.0\nsamples = 1\nvalue = 1.0193"] ;
221 -> 223 ;
224 [label="X[1] <= 0.1494\nmse = 0.0639\nsamples = 10\nvalue = 0.5022"] ;
216 -> 224 ;
225 [label="X[2] <= 63.0161\nmse = 0.0012\nsamples = 4\nvalue = 0.3751"] ;
224 -> 225 ;
226 [label="mse = 0.0\nsamples = 2\nvalue = 0.4073"] ;
225 -> 226 ;
227 [label="mse = 0.0002\nsamples = 2\nvalue = 0.3429"] ;
225 -> 227 ;
228 [label="X[1] <= 0.1599\nmse = 0.0877\nsamples = 6\nvalue = 0.5869"] ;
224 -> 228 ;
229 [label="mse = 0.0\nsamples = 1\nvalue = 1.098"] ;
228 -> 229 ;
230 [label="mse = 0.0426\nsamples = 5\nvalue = 0.4847"] ;
228 -> 230 ;
231 [label="X[1] <= 0.1904\nmse = 0.4679\nsamples = 81\nvalue = 1.3351"] ;
199 -> 231 ;
232 [label="X[2] <= 57.5748\nmse = 0.3967\nsamples = 52\nvalue = 1.5786"] ;
231 -> 232 ;
233 [label="X[1] <= 0.1875\nmse = 0.2894\nsamples = 4\nvalue = 0.5719"] ;
232 -> 233 ;
234 [label="X[1] <= 0.1834\nmse = 0.0093\nsamples = 2\nvalue = 0.2037"] ;
233 -> 234 ;
235 [label="mse = 0.0\nsamples = 1\nvalue = 0.3001"] ;
234 -> 235 ;
236 [label="mse = -0.0\nsamples = 1\nvalue = 0.1074"] ;
234 -> 236 ;
237 [label="X[2] <= 48.6759\nmse = 0.2985\nsamples = 2\nvalue = 0.9401"] ;
233 -> 237 ;
238 [label="mse = 0.0\nsamples = 1\nvalue = 0.3937"] ;
237 -> 238 ;
239 [label="mse = 0.0\nsamples = 1\nvalue = 1.4864"] ;
237 -> 239 ;
240 [label="X[2] <= 63.4352\nmse = 0.3141\nsamples = 48\nvalue = 1.6625"] ;
232 -> 240 ;
241 [label="X[2] <= 61.1235\nmse = 0.3101\nsamples = 45\nvalue = 1.6248"] ;
240 -> 241 ;
242 [label="X[1] <= 0.1864\nmse = 0.2291\nsamples = 29\nvalue = 1.7775"] ;
241 -> 242 ;
243 [label="mse = 0.0843\nsamples = 13\nvalue = 2.008"] ;
242 -> 243 ;
244 [label="mse = 0.2686\nsamples = 16\nvalue = 1.5902"] ;
242 -> 244 ;
245 [label="X[2] <= 63.0338\nmse = 0.3381\nsamples = 16\nvalue = 1.3481"] ;
241 -> 245 ;
246 [label="mse = 0.2503\nsamples = 9\nvalue = 1.1292"] ;
245 -> 246 ;
247 [label="mse = 0.3102\nsamples = 7\nvalue = 1.6296"] ;
245 -> 247 ;
248 [label="X[1] <= 0.1873\nmse = 0.034\nsamples = 3\nvalue = 2.2271"] ;
240 -> 248 ;
249 [label="X[1] <= 0.1858\nmse = 0.0\nsamples = 2\nvalue = 2.0968"] ;
248 -> 249 ;
250 [label="mse = 0.0\nsamples = 1\nvalue = 2.0924"] ;
249 -> 250 ;
251 [label="mse = -0.0\nsamples = 1\nvalue = 2.1012"] ;
249 -> 251 ;
252 [label="mse = 0.0\nsamples = 1\nvalue = 2.4876"] ;
248 -> 252 ;
253 [label="X[2] <= 59.5912\nmse = 0.2988\nsamples = 29\nvalue = 0.8986"] ;
231 -> 253 ;
254 [label="X[2] <= 57.1516\nmse = 0.206\nsamples = 11\nvalue = 1.1599"] ;
253 -> 254 ;
255 [label="X[2] <= 52.8706\nmse = 0.0168\nsamples = 4\nvalue = 0.6193"] ;
254 -> 255 ;
256 [label="X[1] <= 0.1952\nmse = 0.0004\nsamples = 2\nvalue = 0.7476"] ;
255 -> 256 ;
257 [label="mse = 0.0\nsamples = 1\nvalue = 0.7672"] ;
256 -> 257 ;
258 [label="mse = 0.0\nsamples = 1\nvalue = 0.728"] ;
256 -> 258 ;
259 [label="X[1] <= 0.1938\nmse = 0.0003\nsamples = 2\nvalue = 0.491"] ;
255 -> 259 ;
260 [label="mse = 0.0\nsamples = 1\nvalue = 0.5079"] ;
259 -> 260 ;
261 [label="mse = -0.0\nsamples = 1\nvalue = 0.4741"] ;
259 -> 261 ;
262 [label="X[2] <= 58.4185\nmse = 0.0516\nsamples = 7\nvalue = 1.4688"] ;
254 -> 262 ;
263 [label="X[1] <= 0.1986\nmse = 0.0328\nsamples = 4\nvalue = 1.3177"] ;
262 -> 263 ;
264 [label="mse = 0.0109\nsamples = 3\nvalue = 1.2273"] ;
263 -> 264 ;
265 [label="mse = 0.0\nsamples = 1\nvalue = 1.5892"] ;
263 -> 265 ;
266 [label="X[2] <= 59.3964\nmse = 0.0059\nsamples = 3\nvalue = 1.6702"] ;
262 -> 266 ;
267 [label="mse = 0.0002\nsamples = 2\nvalue = 1.6166"] ;
266 -> 267 ;
268 [label="mse = -0.0\nsamples = 1\nvalue = 1.7774"] ;
266 -> 268 ;
269 [label="X[2] <= 61.5261\nmse = 0.2883\nsamples = 18\nvalue = 0.7389"] ;
253 -> 269 ;
270 [label="X[2] <= 60.3374\nmse = 0.0463\nsamples = 7\nvalue = 0.4474"] ;
269 -> 270 ;
271 [label="mse = 0.0\nsamples = 1\nvalue = 0.8648"] ;
270 -> 271 ;
272 [label="X[0] <= 0.0\nmse = 0.0201\nsamples = 6\nvalue = 0.3778"] ;
270 -> 272 ;
273 [label="mse = 0.0103\nsamples = 5\nvalue = 0.3299"] ;
272 -> 273 ;
274 [label="mse = -0.0\nsamples = 1\nvalue = 0.6175"] ;
272 -> 274 ;
275 [label="X[2] <= 61.7102\nmse = 0.3538\nsamples = 11\nvalue = 0.9245"] ;
269 -> 275 ;
276 [label="X[2] <= 61.6971\nmse = 0.6717\nsamples = 2\nvalue = 1.5463"] ;
275 -> 276 ;
277 [label="mse = 0.0\nsamples = 1\nvalue = 0.7267"] ;
276 -> 277 ;
278 [label="mse = 0.0\nsamples = 1\nvalue = 2.3659"] ;
276 -> 278 ;
279 [label="X[2] <= 63.1958\nmse = 0.1781\nsamples = 9\nvalue = 0.7863"] ;
275 -> 279 ;
280 [label="mse = 0.1157\nsamples = 7\nvalue = 0.6765"] ;
279 -> 280 ;
281 [label="mse = 0.2068\nsamples = 2\nvalue = 1.1705"] ;
279 -> 281 ;
282 [label="X[1] <= 0.1852\nmse = 0.1447\nsamples = 22097\nvalue = 0.7556"] ;
198 -> 282 ;
283 [label="X[2] <= 104.1399\nmse = 0.1463\nsamples = 16227\nvalue = 0.7708"] ;
282 -> 283 ;
284 [label="X[1] <= 0.1745\nmse = 0.146\nsamples = 9397\nvalue = 0.7866"] ;
283 -> 284 ;
285 [label="X[1] <= 0.127\nmse = 0.1399\nsamples = 6402\nvalue = 0.7942"] ;
284 -> 285 ;
286 [label="X[1] <= 0.1269\nmse = 0.089\nsamples = 7\nvalue = 1.1798"] ;
285 -> 286 ;
287 [label="X[1] <= 0.1269\nmse = 0.0042\nsamples = 3\nvalue = 0.9079"] ;
286 -> 287 ;
288 [label="mse = 0.0008\nsamples = 2\nvalue = 0.9509"] ;
287 -> 288 ;
289 [label="mse = -0.0\nsamples = 1\nvalue = 0.822"] ;
287 -> 289 ;
290 [label="X[1] <= 0.1269\nmse = 0.0557\nsamples = 4\nvalue = 1.3836"] ;
286 -> 290 ;
291 [label="mse = 0.0\nsamples = 1\nvalue = 1.6977"] ;
290 -> 291 ;
292 [label="mse = 0.0304\nsamples = 3\nvalue = 1.2789"] ;
290 -> 292 ;
293 [label="X[2] <= 97.2777\nmse = 0.1398\nsamples = 6395\nvalue = 0.7937"] ;
285 -> 293 ;
294 [label="X[2] <= 85.5579\nmse = 0.1349\nsamples = 3653\nvalue = 0.7847"] ;
293 -> 294 ;
295 [label="mse = 0.1458\nsamples = 1610\nvalue = 0.81"] ;
294 -> 295 ;
296 [label="mse = 0.1254\nsamples = 2043\nvalue = 0.7647"] ;
294 -> 296 ;
297 [label="X[1] <= 0.1559\nmse = 0.146\nsamples = 2742\nvalue = 0.8058"] ;
293 -> 297 ;
298 [label="mse = 0.1397\nsamples = 1361\nvalue = 0.8322"] ;
297 -> 298 ;
299 [label="mse = 0.1509\nsamples = 1381\nvalue = 0.7798"] ;
297 -> 299 ;
300 [label="X[2] <= 104.1287\nmse = 0.1585\nsamples = 2995\nvalue = 0.7704"] ;
284 -> 300 ;
301 [label="X[1] <= 0.1852\nmse = 0.1584\nsamples = 2991\nvalue = 0.7697"] ;
300 -> 301 ;
302 [label="X[1] <= 0.1746\nmse = 0.1582\nsamples = 2990\nvalue = 0.7694"] ;
301 -> 302 ;
303 [label="mse = 0.1369\nsamples = 41\nvalue = 0.6278"] ;
302 -> 303 ;
304 [label="mse = 0.1582\nsamples = 2949\nvalue = 0.7714"] ;
302 -> 304 ;
305 [label="mse = 0.0\nsamples = 1\nvalue = 1.7245"] ;
301 -> 305 ;
306 [label="X[1] <= 0.1801\nmse = 0.0113\nsamples = 4\nvalue = 1.2648"] ;
300 -> 306 ;
307 [label="X[2] <= 104.1349\nmse = 0.0041\nsamples = 3\nvalue = 1.3171"] ;
306 -> 307 ;
308 [label="mse = 0.0009\nsamples = 2\nvalue = 1.2755"] ;
307 -> 308 ;
309 [label="mse = 0.0\nsamples = 1\nvalue = 1.4004"] ;
307 -> 309 ;
310 [label="mse = -0.0\nsamples = 1\nvalue = 1.108"] ;
306 -> 310 ;
311 [label="X[1] <= 0.1393\nmse = 0.1461\nsamples = 6830\nvalue = 0.7491"] ;
283 -> 311 ;
312 [label="X[1] <= 0.1268\nmse = 0.1406\nsamples = 1255\nvalue = 0.6954"] ;
311 -> 312 ;
313 [label="mse = 0.0\nsamples = 1\nvalue = 2.2016"] ;
312 -> 313 ;
314 [label="X[2] <= 111.1441\nmse = 0.1389\nsamples = 1254\nvalue = 0.6942"] ;
312 -> 314 ;
315 [label="X[2] <= 111.1292\nmse = 0.1397\nsamples = 1016\nvalue = 0.7104"] ;
314 -> 315 ;
316 [label="mse = 0.1388\nsamples = 1015\nvalue = 0.7093"] ;
315 -> 316 ;
317 [label="mse = 0.0\nsamples = 1\nvalue = 1.7747"] ;
315 -> 317 ;
318 [label="X[2] <= 117.8525\nmse = 0.1296\nsamples = 238\nvalue = 0.625"] ;
314 -> 318 ;
319 [label="mse = 0.1277\nsamples = 229\nvalue = 0.6097"] ;
318 -> 319 ;
320 [label="mse = 0.0192\nsamples = 9\nvalue = 1.0158"] ;
318 -> 320 ;
321 [label="X[1] <= 0.1852\nmse = 0.1465\nsamples = 5575\nvalue = 0.7611"] ;
311 -> 321 ;
322 [label="X[1] <= 0.1395\nmse = 0.1458\nsamples = 5573\nvalue = 0.7608"] ;
321 -> 322 ;
323 [label="X[2] <= 115.8592\nmse = 0.1773\nsamples = 21\nvalue = 1.06"] ;
322 -> 323 ;
324 [label="mse = 0.1491\nsamples = 20\nvalue = 1.018"] ;
323 -> 324 ;
325 [label="mse = -0.0\nsamples = 1\nvalue = 1.9003"] ;
323 -> 325 ;
326 [label="X[2] <= 119.5951\nmse = 0.1453\nsamples = 5552\nvalue = 0.7596"] ;
322 -> 326 ;
327 [label="mse = 0.1456\nsamples = 5511\nvalue = 0.7583"] ;
326 -> 327 ;
328 [label="mse = 0.0778\nsamples = 41\nvalue = 0.9402"] ;
326 -> 328 ;
329 [label="X[1] <= 0.1852\nmse = 1.0129\nsamples = 2\nvalue = 1.8283"] ;
321 -> 329 ;
330 [label="mse = 0.0\nsamples = 1\nvalue = 2.8347"] ;
329 -> 330 ;
331 [label="mse = -0.0\nsamples = 1\nvalue = 0.8219"] ;
329 -> 331 ;
332 [label="X[2] <= 114.2473\nmse = 0.1377\nsamples = 5870\nvalue = 0.7136"] ;
282 -> 332 ;
333 [label="X[2] <= 65.1055\nmse = 0.1367\nsamples = 5756\nvalue = 0.7101"] ;
332 -> 333 ;
334 [label="X[2] <= 65.0126\nmse = 0.5071\nsamples = 19\nvalue = 1.0461"] ;
333 -> 334 ;
335 [label="X[2] <= 64.5611\nmse = 0.3388\nsamples = 17\nvalue = 0.8913"] ;
334 -> 335 ;
336 [label="X[1] <= 0.1882\nmse = 0.2475\nsamples = 11\nvalue = 0.705"] ;
335 -> 336 ;
337 [label="mse = 0.5605\nsamples = 3\nvalue = 1.1682"] ;
336 -> 337 ;
338 [label="mse = 0.0195\nsamples = 8\nvalue = 0.5313"] ;
336 -> 338 ;
339 [label="X[1] <= 0.1971\nmse = 0.326\nsamples = 6\nvalue = 1.2327"] ;
335 -> 339 ;
340 [label="mse = 0.2281\nsamples = 4\nvalue = 1.5254"] ;
339 -> 340 ;
341 [label="mse = 0.0075\nsamples = 2\nvalue = 0.6473"] ;
339 -> 341 ;
342 [label="X[1] <= 0.1906\nmse = 0.0023\nsamples = 2\nvalue = 2.3623"] ;
334 -> 342 ;
343 [label="mse = 0.0\nsamples = 1\nvalue = 2.4101"] ;
342 -> 343 ;
344 [label="mse = -0.0\nsamples = 1\nvalue = 2.3144"] ;
342 -> 344 ;
345 [label="X[2] <= 77.6628\nmse = 0.1351\nsamples = 5737\nvalue = 0.7089"] ;
333 -> 345 ;
346 [label="X[1] <= 0.1857\nmse = 0.1336\nsamples = 629\nvalue = 0.6534"] ;
345 -> 346 ;
347 [label="X[1] <= 0.1856\nmse = 0.3724\nsamples = 13\nvalue = 0.9637"] ;
346 -> 347 ;
348 [label="mse = 0.1551\nsamples = 11\nvalue = 0.8164"] ;
347 -> 348 ;
349 [label="mse = 0.7917\nsamples = 2\nvalue = 1.7739"] ;
347 -> 349 ;
350 [label="X[2] <= 77.4935\nmse = 0.1265\nsamples = 616\nvalue = 0.6469"] ;
346 -> 350 ;
351 [label="mse = 0.1285\nsamples = 600\nvalue = 0.651"] ;
350 -> 351 ;
352 [label="mse = 0.0269\nsamples = 16\nvalue = 0.493"] ;
350 -> 352 ;
353 [label="X[1] <= 0.1866\nmse = 0.1349\nsamples = 5108\nvalue = 0.7158"] ;
345 -> 353 ;
354 [label="X[1] <= 0.1853\nmse = 0.097\nsamples = 527\nvalue = 0.6697"] ;
353 -> 354 ;
355 [label="mse = 0.0404\nsamples = 42\nvalue = 0.5519"] ;
354 -> 355 ;
356 [label="mse = 0.1006\nsamples = 485\nvalue = 0.6799"] ;
354 -> 356 ;
357 [label="X[1] <= 0.1993\nmse = 0.139\nsamples = 4581\nvalue = 0.7211"] ;
353 -> 357 ;
358 [label="mse = 0.1386\nsamples = 4520\nvalue = 0.7196"] ;
357 -> 358 ;
359 [label="mse = 0.1565\nsamples = 61\nvalue = 0.8306"] ;
357 -> 359 ;
360 [label="X[1] <= 0.1991\nmse = 0.1548\nsamples = 114\nvalue = 0.8946"] ;
332 -> 360 ;
361 [label="X[2] <= 114.2613\nmse = 0.1336\nsamples = 112\nvalue = 0.8805"] ;
360 -> 361 ;
362 [label="mse = 0.0\nsamples = 1\nvalue = 1.7427"] ;
361 -> 362 ;
363 [label="X[2] <= 119.4312\nmse = 0.128\nsamples = 111\nvalue = 0.8727"] ;
361 -> 363 ;
364 [label="X[2] <= 119.3499\nmse = 0.1516\nsamples = 91\nvalue = 0.8969"] ;
363 -> 364 ;
365 [label="mse = 0.1302\nsamples = 90\nvalue = 0.881"] ;
364 -> 365 ;
366 [label="mse = -0.0\nsamples = 1\nvalue = 2.3277"] ;
364 -> 366 ;
367 [label="X[0] <= 0.0\nmse = 0.0061\nsamples = 20\nvalue = 0.7627"] ;
363 -> 367 ;
368 [label="mse = 0.004\nsamples = 19\nvalue = 0.7519"] ;
367 -> 368 ;
369 [label="mse = 0.0\nsamples = 1\nvalue = 0.9687"] ;
367 -> 369 ;
370 [label="X[2] <= 116.4151\nmse = 0.7109\nsamples = 2\nvalue = 1.6836"] ;
360 -> 370 ;
371 [label="mse = 0.0\nsamples = 1\nvalue = 2.5267"] ;
370 -> 371 ;
372 [label="mse = -0.0\nsamples = 1\nvalue = 0.8404"] ;
370 -> 372 ;
373 [label="X[2] <= 89.8899\nmse = 0.1583\nsamples = 14022\nvalue = 0.6279"] ;
3 -> 373 ;
374 [label="X[1] <= 0.2247\nmse = 0.1284\nsamples = 8359\nvalue = 0.5735"] ;
373 -> 374 ;
375 [label="X[1] <= 0.2052\nmse = 0.13\nsamples = 5728\nvalue = 0.6096"] ;
374 -> 375 ;
376 [label="X[1] <= 0.2052\nmse = 0.1381\nsamples = 1219\nvalue = 0.656"] ;
375 -> 376 ;
377 [label="X[2] <= 64.7813\nmse = 0.1367\nsamples = 1210\nvalue = 0.6526"] ;
376 -> 377 ;
378 [label="X[2] <= 55.2642\nmse = 0.1661\nsamples = 15\nvalue = 0.9284"] ;
377 -> 378 ;
379 [label="X[2] <= 50.9284\nmse = 0.0017\nsamples = 2\nvalue = 0.3182"] ;
378 -> 379 ;
380 [label="mse = 0.0\nsamples = 1\nvalue = 0.36"] ;
379 -> 380 ;
381 [label="mse = -0.0\nsamples = 1\nvalue = 0.2764"] ;
379 -> 381 ;
382 [label="X[2] <= 61.1333\nmse = 0.1253\nsamples = 13\nvalue = 1.0223"] ;
378 -> 382 ;
383 [label="X[2] <= 59.5154\nmse = 0.0376\nsamples = 5\nvalue = 1.2441"] ;
382 -> 383 ;
384 [label="mse = 0.0008\nsamples = 3\nvalue = 1.087"] ;
383 -> 384 ;
385 [label="mse = 0.0001\nsamples = 2\nvalue = 1.4799"] ;
383 -> 385 ;
386 [label="X[2] <= 62.41\nmse = 0.1302\nsamples = 8\nvalue = 0.8836"] ;
382 -> 386 ;
387 [label="mse = 0.0\nsamples = 1\nvalue = 0.2338"] ;
386 -> 387 ;
388 [label="mse = 0.0799\nsamples = 7\nvalue = 0.9764"] ;
386 -> 388 ;
389 [label="X[2] <= 78.2679\nmse = 0.1353\nsamples = 1195\nvalue = 0.6491"] ;
377 -> 389 ;
390 [label="X[2] <= 66.7379\nmse = 0.099\nsamples = 348\nvalue = 0.6097"] ;
389 -> 390 ;
391 [label="X[1] <= 0.2027\nmse = 0.0386\nsamples = 15\nvalue = 0.4648"] ;
390 -> 391 ;
392 [label="mse = 0.0247\nsamples = 7\nvalue = 0.3672"] ;
391 -> 392 ;
393 [label="mse = 0.0352\nsamples = 8\nvalue = 0.5502"] ;
391 -> 393 ;
394 [label="X[2] <= 66.8287\nmse = 0.1007\nsamples = 333\nvalue = 0.6162"] ;
390 -> 394 ;
395 [label="mse = 0.0\nsamples = 1\nvalue = 1.5909"] ;
394 -> 395 ;
396 [label="mse = 0.0982\nsamples = 332\nvalue = 0.6133"] ;
394 -> 396 ;
397 [label="X[2] <= 78.344\nmse = 0.1494\nsamples = 847\nvalue = 0.6653"] ;
389 -> 397 ;
398 [label="X[1] <= 0.2021\nmse = 0.0338\nsamples = 5\nvalue = 0.9999"] ;
397 -> 398 ;
399 [label="mse = 0.0056\nsamples = 4\nvalue = 1.0855"] ;
398 -> 399 ;
400 [label="mse = -0.0\nsamples = 1\nvalue = 0.6575"] ;
398 -> 400 ;
401 [label="X[1] <= 0.2006\nmse = 0.1494\nsamples = 842\nvalue = 0.6633"] ;
397 -> 401 ;
402 [label="mse = 0.0916\nsamples = 161\nvalue = 0.6171"] ;
401 -> 402 ;
403 [label="mse = 0.1624\nsamples = 681\nvalue = 0.6742"] ;
401 -> 403 ;
404 [label="X[2] <= 77.3961\nmse = 0.125\nsamples = 9\nvalue = 1.1116"] ;
376 -> 404 ;
405 [label="mse = 0.0\nsamples = 1\nvalue = 1.8536"] ;
404 -> 405 ;
406 [label="X[2] <= 78.3353\nmse = 0.0632\nsamples = 8\nvalue = 1.0188"] ;
404 -> 406 ;
407 [label="mse = 0.0\nsamples = 1\nvalue = 0.7145"] ;
406 -> 407 ;
408 [label="X[1] <= 0.2052\nmse = 0.0571\nsamples = 7\nvalue = 1.0623"] ;
406 -> 408 ;
409 [label="X[2] <= 87.9417\nmse = 0.0325\nsamples = 5\nvalue = 1.1486"] ;
408 -> 409 ;
410 [label="mse = 0.0185\nsamples = 4\nvalue = 1.2151"] ;
409 -> 410 ;
411 [label="mse = 0.0\nsamples = 1\nvalue = 0.8828"] ;
409 -> 411 ;
412 [label="X[2] <= 86.1643\nmse = 0.0537\nsamples = 2\nvalue = 0.8466"] ;
408 -> 412 ;
413 [label="mse = 0.0\nsamples = 1\nvalue = 0.6149"] ;
412 -> 413 ;
414 [label="mse = 0.0\nsamples = 1\nvalue = 1.0783"] ;
412 -> 414 ;
415 [label="X[2] <= 83.8479\nmse = 0.127\nsamples = 4509\nvalue = 0.5971"] ;
375 -> 415 ;
416 [label="X[1] <= 0.22\nmse = 0.1115\nsamples = 3110\nvalue = 0.5818"] ;
415 -> 416 ;
417 [label="X[1] <= 0.2197\nmse = 0.1114\nsamples = 2440\nvalue = 0.5907"] ;
416 -> 417 ;
418 [label="X[1] <= 0.2197\nmse = 0.111\nsamples = 2396\nvalue = 0.589"] ;
417 -> 418 ;
419 [label="X[1] <= 0.2078\nmse = 0.111\nsamples = 2388\nvalue = 0.59"] ;
418 -> 419 ;
420 [label="mse = 0.1072\nsamples = 398\nvalue = 0.6172"] ;
419 -> 420 ;
421 [label="mse = 0.1116\nsamples = 1990\nvalue = 0.5845"] ;
419 -> 421 ;
422 [label="X[0] <= 0.0\nmse = 0.0184\nsamples = 8\nvalue = 0.298"] ;
418 -> 422 ;
423 [label="mse = 0.008\nsamples = 4\nvalue = 0.2207"] ;
422 -> 423 ;
424 [label="mse = 0.0168\nsamples = 4\nvalue = 0.3754"] ;
422 -> 424 ;
425 [label="X[1] <= 0.2198\nmse = 0.1256\nsamples = 44\nvalue = 0.6822"] ;
417 -> 425 ;
426 [label="X[2] <= 82.3392\nmse = 0.2662\nsamples = 8\nvalue = 0.9105"] ;
425 -> 426 ;
427 [label="mse = 0.1422\nsamples = 7\nvalue = 0.7681"] ;
426 -> 427 ;
428 [label="mse = 0.0\nsamples = 1\nvalue = 1.9067"] ;
426 -> 428 ;
429 [label="X[1] <= 0.2199\nmse = 0.0802\nsamples = 36\nvalue = 0.6315"] ;
425 -> 429 ;
430 [label="mse = 0.0413\nsamples = 8\nvalue = 0.4483"] ;
429 -> 430 ;
431 [label="mse = 0.079\nsamples = 28\nvalue = 0.6839"] ;
429 -> 431 ;
432 [label="X[1] <= 0.2205\nmse = 0.1106\nsamples = 670\nvalue = 0.5494"] ;
416 -> 432 ;
433 [label="X[2] <= 68.2178\nmse = 0.0587\nsamples = 66\nvalue = 0.4368"] ;
432 -> 433 ;
434 [label="X[1] <= 0.2203\nmse = 0.0187\nsamples = 4\nvalue = 0.872"] ;
433 -> 434 ;
435 [label="mse = 0.0015\nsamples = 2\nvalue = 0.9914"] ;
434 -> 435 ;
436 [label="mse = 0.0074\nsamples = 2\nvalue = 0.7526"] ;
434 -> 436 ;
437 [label="X[2] <= 75.1842\nmse = 0.0483\nsamples = 62\nvalue = 0.4087"] ;
433 -> 437 ;
438 [label="mse = 0.0391\nsamples = 13\nvalue = 0.5186"] ;
437 -> 438 ;
439 [label="mse = 0.0467\nsamples = 49\nvalue = 0.3796"] ;
437 -> 439 ;
440 [label="X[2] <= 80.5605\nmse = 0.1147\nsamples = 604\nvalue = 0.5617"] ;
432 -> 440 ;
441 [label="X[2] <= 80.482\nmse = 0.1282\nsamples = 415\nvalue = 0.5809"] ;
440 -> 441 ;
442 [label="mse = 0.1236\nsamples = 408\nvalue = 0.5753"] ;
441 -> 442 ;
443 [label="mse = 0.2844\nsamples = 7\nvalue = 0.9092"] ;
441 -> 443 ;
444 [label="X[2] <= 81.1521\nmse = 0.0824\nsamples = 189\nvalue = 0.5196"] ;
440 -> 444 ;
445 [label="mse = 0.062\nsamples = 53\nvalue = 0.4332"] ;
444 -> 445 ;
446 [label="mse = 0.0864\nsamples = 136\nvalue = 0.5533"] ;
444 -> 446 ;
447 [label="X[1] <= 0.2246\nmse = 0.1599\nsamples = 1399\nvalue = 0.6312"] ;
415 -> 447 ;
448 [label="X[1] <= 0.2163\nmse = 0.1564\nsamples = 1392\nvalue = 0.6283"] ;
447 -> 448 ;
449 [label="X[1] <= 0.2157\nmse = 0.1673\nsamples = 833\nvalue = 0.6575"] ;
448 -> 449 ;
450 [label="X[1] <= 0.2085\nmse = 0.1565\nsamples = 780\nvalue = 0.6467"] ;
449 -> 450 ;
451 [label="mse = 0.1214\nsamples = 223\nvalue = 0.595"] ;
450 -> 451 ;
452 [label="mse = 0.169\nsamples = 557\nvalue = 0.6674"] ;
450 -> 452 ;
453 [label="X[2] <= 88.6687\nmse = 0.2999\nsamples = 53\nvalue = 0.8158"] ;
449 -> 453 ;
454 [label="mse = 0.3208\nsamples = 42\nvalue = 0.9119"] ;
453 -> 454 ;
455 [label="mse = 0.0503\nsamples = 11\nvalue = 0.4486"] ;
453 -> 455 ;
456 [label="X[2] <= 83.9611\nmse = 0.137\nsamples = 559\nvalue = 0.5848"] ;
448 -> 456 ;
457 [label="X[2] <= 83.9461\nmse = 0.0573\nsamples = 13\nvalue = 0.8511"] ;
456 -> 457 ;
458 [label="mse = 0.0483\nsamples = 11\nvalue = 0.7992"] ;
457 -> 458 ;
459 [label="mse = 0.0104\nsamples = 2\nvalue = 1.1366"] ;
457 -> 459 ;
460 [label="X[2] <= 84.1214\nmse = 0.1372\nsamples = 546\nvalue = 0.5785"] ;
456 -> 460 ;
461 [label="mse = 0.0239\nsamples = 17\nvalue = 0.3523"] ;
460 -> 461 ;
462 [label="mse = 0.1391\nsamples = 529\nvalue = 0.5858"] ;
460 -> 462 ;
463 [label="X[1] <= 0.2246\nmse = 0.5181\nsamples = 7\nvalue = 1.2171"] ;
447 -> 463 ;
464 [label="X[1] <= 0.2246\nmse = 0.073\nsamples = 3\nvalue = 1.9175"] ;
463 -> 464 ;
465 [label="X[1] <= 0.2246\nmse = 0.0004\nsamples = 2\nvalue = 1.7268"] ;
464 -> 465 ;
466 [label="mse = 0.0\nsamples = 1\nvalue = 1.7075"] ;
465 -> 466 ;
467 [label="mse = 0.0\nsamples = 1\nvalue = 1.7461"] ;
465 -> 467 ;
468 [label="mse = 0.0\nsamples = 1\nvalue = 2.2989"] ;
464 -> 468 ;
469 [label="X[2] <= 87.824\nmse = 0.2081\nsamples = 4\nvalue = 0.6919"] ;
463 -> 469 ;
470 [label="X[2] <= 86.6014\nmse = 0.1065\nsamples = 3\nvalue = 0.8986"] ;
469 -> 470 ;
471 [label="mse = 0.0292\nsamples = 2\nvalue = 0.6899"] ;
470 -> 471 ;
472 [label="mse = -0.0\nsamples = 1\nvalue = 1.3159"] ;
470 -> 472 ;
473 [label="mse = -0.0\nsamples = 1\nvalue = 0.0717"] ;
469 -> 473 ;
474 [label="X[2] <= 81.1244\nmse = 0.116\nsamples = 2631\nvalue = 0.4948"] ;
374 -> 474 ;
475 [label="X[1] <= 0.2303\nmse = 0.0982\nsamples = 1483\nvalue = 0.4691"] ;
474 -> 475 ;
476 [label="X[1] <= 0.2297\nmse = 0.0973\nsamples = 563\nvalue = 0.501"] ;
475 -> 476 ;
477 [label="X[1] <= 0.2291\nmse = 0.093\nsamples = 516\nvalue = 0.4911"] ;
476 -> 477 ;
478 [label="X[1] <= 0.2291\nmse = 0.0982\nsamples = 455\nvalue = 0.5041"] ;
477 -> 478 ;
479 [label="X[1] <= 0.2288\nmse = 0.0935\nsamples = 454\nvalue = 0.5008"] ;
478 -> 479 ;
480 [label="mse = 0.0879\nsamples = 420\nvalue = 0.4895"] ;
479 -> 480 ;
481 [label="mse = 0.1417\nsamples = 34\nvalue = 0.6399"] ;
479 -> 481 ;
482 [label="mse = 0.0\nsamples = 1\nvalue = 2.0007"] ;
478 -> 482 ;
483 [label="X[2] <= 80.7332\nmse = 0.0437\nsamples = 61\nvalue = 0.3939"] ;
477 -> 483 ;
484 [label="X[1] <= 0.2297\nmse = 0.0425\nsamples = 58\nvalue = 0.4049"] ;
483 -> 484 ;
485 [label="mse = 0.0417\nsamples = 55\nvalue = 0.4167"] ;
484 -> 485 ;
486 [label="mse = 0.0086\nsamples = 3\nvalue = 0.1875"] ;
484 -> 486 ;
487 [label="X[0] <= 0.0\nmse = 0.0178\nsamples = 3\nvalue = 0.1807"] ;
483 -> 487 ;
488 [label="mse = 0.0002\nsamples = 2\nvalue = 0.0868"] ;
487 -> 488 ;
489 [label="mse = 0.0\nsamples = 1\nvalue = 0.3686"] ;
487 -> 489 ;
490 [label="X[1] <= 0.2302\nmse = 0.1311\nsamples = 47\nvalue = 0.6097"] ;
476 -> 490 ;
491 [label="X[1] <= 0.2301\nmse = 0.1691\nsamples = 32\nvalue = 0.6609"] ;
490 -> 491 ;
492 [label="X[2] <= 80.1298\nmse = 0.1114\nsamples = 30\nvalue = 0.6103"] ;
491 -> 492 ;
493 [label="mse = 0.1184\nsamples = 26\nvalue = 0.5779"] ;
492 -> 493 ;
494 [label="mse = 0.015\nsamples = 4\nvalue = 0.8209"] ;
492 -> 494 ;
495 [label="X[1] <= 0.2301\nmse = 0.4193\nsamples = 2\nvalue = 1.4201"] ;
491 -> 495 ;
496 [label="mse = 0.0\nsamples = 1\nvalue = 2.0677"] ;
495 -> 496 ;
497 [label="mse = 0.0\nsamples = 1\nvalue = 0.7726"] ;
495 -> 497 ;
498 [label="X[2] <= 65.2023\nmse = 0.0326\nsamples = 15\nvalue = 0.5005"] ;
490 -> 498 ;
499 [label="mse = 0.0\nsamples = 1\nvalue = 0.9347"] ;
498 -> 499 ;
500 [label="X[0] <= 0.0\nmse = 0.0205\nsamples = 14\nvalue = 0.4695"] ;
498 -> 500 ;
501 [label="mse = 0.0187\nsamples = 6\nvalue = 0.3796"] ;
500 -> 501 ;
502 [label="mse = 0.0112\nsamples = 8\nvalue = 0.537"] ;
500 -> 502 ;
503 [label="X[2] <= 58.7272\nmse = 0.0977\nsamples = 920\nvalue = 0.4495"] ;
475 -> 503 ;
504 [label="X[1] <= 0.2388\nmse = 0.0048\nsamples = 3\nvalue = 0.1561"] ;
503 -> 504 ;
505 [label="X[1] <= 0.2376\nmse = 0.0\nsamples = 2\nvalue = 0.2053"] ;
504 -> 505 ;
506 [label="mse = 0.0\nsamples = 1\nvalue = 0.2063"] ;
505 -> 506 ;
507 [label="mse = 0.0\nsamples = 1\nvalue = 0.2043"] ;
505 -> 507 ;
508 [label="mse = 0.0\nsamples = 1\nvalue = 0.0576"] ;
504 -> 508 ;
509 [label="X[2] <= 64.4718\nmse = 0.0978\nsamples = 917\nvalue = 0.4505"] ;
503 -> 509 ;
510 [label="X[1] <= 0.2319\nmse = 0.0492\nsamples = 20\nvalue = 0.5948"] ;
509 -> 510 ;
511 [label="X[2] <= 63.7027\nmse = 0.0834\nsamples = 3\nvalue = 0.3418"] ;
510 -> 511 ;
512 [label="mse = 0.0092\nsamples = 2\nvalue = 0.1452"] ;
511 -> 512 ;
513 [label="mse = 0.0\nsamples = 1\nvalue = 0.7349"] ;
511 -> 513 ;
514 [label="X[0] <= 0.0\nmse = 0.0299\nsamples = 17\nvalue = 0.6394"] ;
510 -> 514 ;
515 [label="mse = 0.0172\nsamples = 16\nvalue = 0.6686"] ;
514 -> 515 ;
516 [label="mse = 0.0\nsamples = 1\nvalue = 0.1717"] ;
514 -> 516 ;
517 [label="X[2] <= 78.0381\nmse = 0.0984\nsamples = 897\nvalue = 0.4473"] ;
509 -> 517 ;
518 [label="X[2] <= 77.8723\nmse = 0.0793\nsamples = 508\nvalue = 0.4321"] ;
517 -> 518 ;
519 [label="mse = 0.0804\nsamples = 491\nvalue = 0.4381"] ;
518 -> 519 ;
520 [label="mse = 0.0138\nsamples = 17\nvalue = 0.2585"] ;
518 -> 520 ;
521 [label="X[2] <= 78.045\nmse = 0.1226\nsamples = 389\nvalue = 0.4671"] ;
517 -> 521 ;
522 [label="mse = 0.0\nsamples = 1\nvalue = 2.1581"] ;
521 -> 522 ;
523 [label="mse = 0.1155\nsamples = 388\nvalue = 0.4628"] ;
521 -> 523 ;
524 [label="X[1] <= 0.2412\nmse = 0.1369\nsamples = 1148\nvalue = 0.5281"] ;
474 -> 524 ;
525 [label="X[1] <= 0.2331\nmse = 0.1353\nsamples = 1147\nvalue = 0.5268"] ;
524 -> 525 ;
526 [label="X[1] <= 0.2284\nmse = 0.1401\nsamples = 629\nvalue = 0.5628"] ;
525 -> 526 ;
527 [label="X[1] <= 0.2276\nmse = 0.114\nsamples = 312\nvalue = 0.5304"] ;
526 -> 527 ;
528 [label="X[1] <= 0.225\nmse = 0.1271\nsamples = 243\nvalue = 0.5526"] ;
527 -> 528 ;
529 [label="mse = 0.0805\nsamples = 27\nvalue = 0.4235"] ;
528 -> 529 ;
530 [label="mse = 0.1305\nsamples = 216\nvalue = 0.5687"] ;
528 -> 530 ;
531 [label="X[1] <= 0.2284\nmse = 0.06\nsamples = 69\nvalue = 0.4524"] ;
527 -> 531 ;
532 [label="mse = 0.0626\nsamples = 62\nvalue = 0.4665"] ;
531 -> 532 ;
533 [label="mse = 0.0194\nsamples = 7\nvalue = 0.3272"] ;
531 -> 533 ;
534 [label="X[1] <= 0.2285\nmse = 0.1638\nsamples = 317\nvalue = 0.5946"] ;
526 -> 534 ;
535 [label="X[1] <= 0.2285\nmse = 0.2443\nsamples = 4\nvalue = 0.9857"] ;
534 -> 535 ;
536 [label="mse = 0.0243\nsamples = 3\nvalue = 0.7112"] ;
535 -> 536 ;
537 [label="mse = 0.0\nsamples = 1\nvalue = 1.8093"] ;
535 -> 537 ;
538 [label="X[2] <= 86.4164\nmse = 0.1608\nsamples = 313\nvalue = 0.5896"] ;
534 -> 538 ;
539 [label="mse = 0.1707\nsamples = 229\nvalue = 0.6129"] ;
538 -> 539 ;
540 [label="mse = 0.1285\nsamples = 84\nvalue = 0.5264"] ;
538 -> 540 ;
541 [label="X[2] <= 81.246\nmse = 0.1261\nsamples = 518\nvalue = 0.4832"] ;
525 -> 541 ;
542 [label="X[1] <= 0.234\nmse = 0.2652\nsamples = 5\nvalue = 0.9765"] ;
541 -> 542 ;
543 [label="mse = 0.0\nsamples = 1\nvalue = 1.6496"] ;
542 -> 543 ;
544 [label="X[2] <= 81.2302\nmse = 0.1899\nsamples = 4\nvalue = 0.8082"] ;
542 -> 544 ;
545 [label="mse = 0.0363\nsamples = 3\nvalue = 0.5753"] ;
544 -> 545 ;
546 [label="mse = 0.0\nsamples = 1\nvalue = 1.5068"] ;
544 -> 546 ;
547 [label="X[2] <= 82.1209\nmse = 0.1223\nsamples = 513\nvalue = 0.4784"] ;
541 -> 547 ;
548 [label="X[1] <= 0.2348\nmse = 0.0587\nsamples = 62\nvalue = 0.3744"] ;
547 -> 548 ;
549 [label="mse = 0.0132\nsamples = 18\nvalue = 0.2497"] ;
548 -> 549 ;
550 [label="mse = 0.0683\nsamples = 44\nvalue = 0.4254"] ;
548 -> 550 ;
551 [label="X[2] <= 82.1809\nmse = 0.1294\nsamples = 451\nvalue = 0.4927"] ;
547 -> 551 ;
552 [label="mse = 0.1737\nsamples = 3\nvalue = 1.1355"] ;
551 -> 552 ;
553 [label="mse = 0.1263\nsamples = 448\nvalue = 0.4884"] ;
551 -> 553 ;
554 [label="mse = 0.0\nsamples = 1\nvalue = 1.9282"] ;
524 -> 554 ;
555 [label="X[2] <= 101.4514\nmse = 0.1916\nsamples = 5663\nvalue = 0.7082"] ;
373 -> 555 ;
556 [label="X[1] <= 0.2355\nmse = 0.1804\nsamples = 3424\nvalue = 0.6748"] ;
555 -> 556 ;
557 [label="X[1] <= 0.2354\nmse = 0.1831\nsamples = 3205\nvalue = 0.6833"] ;
556 -> 557 ;
558 [label="X[2] <= 89.9065\nmse = 0.1821\nsamples = 3203\nvalue = 0.6826"] ;
557 -> 558 ;
559 [label="X[1] <= 0.2168\nmse = 0.03\nsamples = 2\nvalue = 1.7246"] ;
558 -> 559 ;
560 [label="mse = 0.0\nsamples = 1\nvalue = 1.5514"] ;
559 -> 560 ;
561 [label="mse = 0.0\nsamples = 1\nvalue = 1.8978"] ;
559 -> 561 ;
562 [label="X[2] <= 94.355\nmse = 0.1816\nsamples = 3201\nvalue = 0.6819"] ;
558 -> 562 ;
563 [label="X[2] <= 90.0427\nmse = 0.1651\nsamples = 1286\nvalue = 0.6544"] ;
562 -> 563 ;
564 [label="X[2] <= 89.936\nmse = 0.2848\nsamples = 47\nvalue = 0.8283"] ;
563 -> 564 ;
565 [label="mse = 0.0656\nsamples = 8\nvalue = 0.5229"] ;
564 -> 565 ;
566 [label="mse = 0.3067\nsamples = 39\nvalue = 0.891"] ;
564 -> 566 ;
567 [label="X[2] <= 90.3522\nmse = 0.1594\nsamples = 1239\nvalue = 0.6478"] ;
563 -> 567 ;
568 [label="mse = 0.0781\nsamples = 106\nvalue = 0.5439"] ;
567 -> 568 ;
569 [label="mse = 0.1659\nsamples = 1133\nvalue = 0.6575"] ;
567 -> 569 ;
570 [label="X[1] <= 0.2233\nmse = 0.1917\nsamples = 1915\nvalue = 0.7004"] ;
562 -> 570 ;
571 [label="X[2] <= 94.3564\nmse = 0.193\nsamples = 1509\nvalue = 0.7128"] ;
570 -> 571 ;
572 [label="mse = 0.0\nsamples = 1\nvalue = 1.6607"] ;
571 -> 572 ;
573 [label="mse = 0.1925\nsamples = 1508\nvalue = 0.7122"] ;
571 -> 573 ;
574 [label="X[2] <= 94.4494\nmse = 0.1843\nsamples = 406\nvalue = 0.6544"] ;
570 -> 574 ;
575 [label="mse = 0.44\nsamples = 2\nvalue = 1.4251"] ;
574 -> 575 ;
576 [label="mse = 0.1801\nsamples = 404\nvalue = 0.6505"] ;
574 -> 576 ;
577 [label="X[2] <= 95.3224\nmse = 0.3172\nsamples = 2\nvalue = 1.8846"] ;
557 -> 577 ;
578 [label="mse = 0.0\nsamples = 1\nvalue = 1.3214"] ;
577 -> 578 ;
579 [label="mse = 0.0\nsamples = 1\nvalue = 2.4478"] ;
577 -> 579 ;
580 [label="X[1] <= 0.241\nmse = 0.1243\nsamples = 219\nvalue = 0.5498"] ;
556 -> 580 ;
581 [label="X[1] <= 0.2355\nmse = 0.1216\nsamples = 214\nvalue = 0.5401"] ;
580 -> 581 ;
582 [label="X[0] <= 0.0\nmse = 0.0051\nsamples = 3\nvalue = 0.1619"] ;
581 -> 582 ;
583 [label="mse = 0.0\nsamples = 1\nvalue = 0.0607"] ;
582 -> 583 ;
584 [label="X[0] <= 0.0\nmse = 0.0\nsamples = 2\nvalue = 0.2125"] ;
582 -> 584 ;
585 [label="mse = 0.0\nsamples = 1\nvalue = 0.2067"] ;
584 -> 585 ;
586 [label="mse = 0.0\nsamples = 1\nvalue = 0.2182"] ;
584 -> 586 ;
587 [label="X[1] <= 0.2361\nmse = 0.1212\nsamples = 211\nvalue = 0.5455"] ;
581 -> 587 ;
588 [label="X[2] <= 99.578\nmse = 0.161\nsamples = 19\nvalue = 0.6764"] ;
587 -> 588 ;
589 [label="X[2] <= 98.0974\nmse = 0.1415\nsamples = 14\nvalue = 0.8135"] ;
588 -> 589 ;
590 [label="mse = 0.0873\nsamples = 11\nvalue = 0.6772"] ;
589 -> 590 ;
591 [label="mse = 0.0224\nsamples = 3\nvalue = 1.3133"] ;
589 -> 591 ;
592 [label="X[1] <= 0.2359\nmse = 0.0156\nsamples = 5\nvalue = 0.2924"] ;
588 -> 592 ;
593 [label="mse = 0.0052\nsamples = 3\nvalue = 0.2016"] ;
592 -> 593 ;
594 [label="mse = 0.0004\nsamples = 2\nvalue = 0.4286"] ;
592 -> 594 ;
595 [label="X[1] <= 0.2405\nmse = 0.1154\nsamples = 192\nvalue = 0.5325"] ;
587 -> 595 ;
596 [label="X[1] <= 0.2405\nmse = 0.1207\nsamples = 175\nvalue = 0.5441"] ;
595 -> 596 ;
597 [label="mse = 0.1203\nsamples = 173\nvalue = 0.5396"] ;
596 -> 597 ;
598 [label="mse = 0.0033\nsamples = 2\nvalue = 0.9299"] ;
596 -> 598 ;
599 [label="X[1] <= 0.2406\nmse = 0.0458\nsamples = 17\nvalue = 0.4131"] ;
595 -> 599 ;
600 [label="mse = 0.0037\nsamples = 4\nvalue = 0.1853"] ;
599 -> 600 ;
601 [label="mse = 0.0378\nsamples = 13\nvalue = 0.4832"] ;
599 -> 601 ;
602 [label="X[2] <= 94.677\nmse = 0.0626\nsamples = 5\nvalue = 0.9654"] ;
580 -> 602 ;
603 [label="mse = 0.0\nsamples = 1\nvalue = 1.4607"] ;
602 -> 603 ;
604 [label="X[2] <= 96.9241\nmse = 0.0016\nsamples = 4\nvalue = 0.8416"] ;
602 -> 604 ;
605 [label="mse = 0.0\nsamples = 1\nvalue = 0.7832"] ;
604 -> 605 ;
606 [label="X[2] <= 99.9496\nmse = 0.0006\nsamples = 3\nvalue = 0.8611"] ;
604 -> 606 ;
607 [label="X[1] <= 0.2411\nmse = 0.0001\nsamples = 2\nvalue = 0.8772"] ;
606 -> 607 ;
608 [label="mse = 0.0\nsamples = 1\nvalue = 0.8892"] ;
607 -> 608 ;
609 [label="mse = 0.0\nsamples = 1\nvalue = 0.8652"] ;
607 -> 609 ;
610 [label="mse = 0.0\nsamples = 1\nvalue = 0.829"] ;
606 -> 610 ;
611 [label="X[2] <= 101.4865\nmse = 0.2044\nsamples = 2239\nvalue = 0.7593"] ;
555 -> 611 ;
612 [label="X[1] <= 0.2228\nmse = 0.6891\nsamples = 5\nvalue = 1.6849"] ;
611 -> 612 ;
613 [label="X[2] <= 101.4777\nmse = 0.0862\nsamples = 2\nvalue = 0.8414"] ;
612 -> 613 ;
614 [label="mse = 0.0\nsamples = 1\nvalue = 1.135"] ;
613 -> 614 ;
615 [label="mse = 0.0\nsamples = 1\nvalue = 0.5478"] ;
613 -> 615 ;
616 [label="X[2] <= 101.4581\nmse = 0.3006\nsamples = 3\nvalue = 2.2472"] ;
612 -> 616 ;
617 [label="mse = 0.0\nsamples = 1\nvalue = 2.7213"] ;
616 -> 617 ;
618 [label="X[2] <= 101.4731\nmse = 0.2823\nsamples = 2\nvalue = 2.0101"] ;
616 -> 618 ;
619 [label="mse = 0.0\nsamples = 1\nvalue = 1.4787"] ;
618 -> 619 ;
620 [label="mse = -0.0\nsamples = 1\nvalue = 2.5414"] ;
618 -> 620 ;
621 [label="X[1] <= 0.2279\nmse = 0.2014\nsamples = 2234\nvalue = 0.7572"] ;
611 -> 621 ;
622 [label="X[1] <= 0.2052\nmse = 0.2125\nsamples = 1858\nvalue = 0.7729"] ;
621 -> 622 ;
623 [label="X[1] <= 0.2048\nmse = 0.1291\nsamples = 492\nvalue = 0.6979"] ;
622 -> 623 ;
624 [label="X[1] <= 0.2036\nmse = 0.1318\nsamples = 454\nvalue = 0.7087"] ;
623 -> 624 ;
625 [label="X[2] <= 105.2643\nmse = 0.1149\nsamples = 326\nvalue = 0.6786"] ;
624 -> 625 ;
626 [label="mse = 0.1003\nsamples = 139\nvalue = 0.617"] ;
625 -> 626 ;
627 [label="mse = 0.1209\nsamples = 187\nvalue = 0.7244"] ;
625 -> 627 ;
628 [label="X[1] <= 0.2036\nmse = 0.1664\nsamples = 128\nvalue = 0.7855"] ;
624 -> 628 ;
629 [label="mse = 0.0658\nsamples = 4\nvalue = 1.2682"] ;
628 -> 629 ;
630 [label="mse = 0.1619\nsamples = 124\nvalue = 0.77"] ;
628 -> 630 ;
631 [label="X[1] <= 0.205\nmse = 0.0793\nsamples = 38\nvalue = 0.5687"] ;
623 -> 631 ;
632 [label="X[1] <= 0.205\nmse = 0.0502\nsamples = 22\nvalue = 0.4858"] ;
631 -> 632 ;
633 [label="mse = 0.0442\nsamples = 20\nvalue = 0.5156"] ;
632 -> 633 ;
634 [label="mse = 0.0124\nsamples = 2\nvalue = 0.1876"] ;
632 -> 634 ;
635 [label="X[1] <= 0.2052\nmse = 0.0969\nsamples = 16\nvalue = 0.6828"] ;
631 -> 635 ;
636 [label="mse = 0.0661\nsamples = 14\nvalue = 0.7561"] ;
635 -> 636 ;
637 [label="mse = 0.0109\nsamples = 2\nvalue = 0.1696"] ;
635 -> 637 ;
638 [label="X[2] <= 106.1309\nmse = 0.2398\nsamples = 1366\nvalue = 0.7999"] ;
622 -> 638 ;
639 [label="X[2] <= 103.5224\nmse = 0.2495\nsamples = 696\nvalue = 0.769"] ;
638 -> 639 ;
640 [label="X[2] <= 103.5092\nmse = 0.2481\nsamples = 313\nvalue = 0.8112"] ;
639 -> 640 ;
641 [label="mse = 0.2346\nsamples = 311\nvalue = 0.8014"] ;
640 -> 641 ;
642 [label="mse = 0.0264\nsamples = 2\nvalue = 2.3322"] ;
640 -> 642 ;
643 [label="X[1] <= 0.2055\nmse = 0.248\nsamples = 383\nvalue = 0.7344"] ;
639 -> 643 ;
644 [label="mse = 0.5569\nsamples = 7\nvalue = 1.1312"] ;
643 -> 644 ;
645 [label="mse = 0.2393\nsamples = 376\nvalue = 0.727"] ;
643 -> 645 ;
646 [label="X[2] <= 106.2551\nmse = 0.2277\nsamples = 670\nvalue = 0.8321"] ;
638 -> 646 ;
647 [label="X[1] <= 0.2145\nmse = 0.4831\nsamples = 21\nvalue = 1.1368"] ;
646 -> 647 ;
648 [label="mse = 0.3856\nsamples = 14\nvalue = 1.384"] ;
647 -> 648 ;
649 [label="mse = 0.3116\nsamples = 7\nvalue = 0.6426"] ;
647 -> 649 ;
650 [label="X[2] <= 116.2647\nmse = 0.2164\nsamples = 649\nvalue = 0.8222"] ;
646 -> 650 ;
651 [label="mse = 0.2253\nsamples = 617\nvalue = 0.8299"] ;
650 -> 651 ;
652 [label="mse = 0.0209\nsamples = 32\nvalue = 0.6738"] ;
650 -> 652 ;
653 [label="X[1] <= 0.2284\nmse = 0.1393\nsamples = 376\nvalue = 0.6798"] ;
621 -> 653 ;
654 [label="X[0] <= 0.0\nmse = 0.0584\nsamples = 28\nvalue = 0.5102"] ;
653 -> 654 ;
655 [label="X[2] <= 102.1041\nmse = 0.0515\nsamples = 27\nvalue = 0.4922"] ;
654 -> 655 ;
656 [label="X[1] <= 0.2282\nmse = 0.0002\nsamples = 2\nvalue = 0.2926"] ;
655 -> 656 ;
657 [label="mse = 0.0\nsamples = 1\nvalue = 0.3068"] ;
656 -> 657 ;
658 [label="mse = 0.0\nsamples = 1\nvalue = 0.2784"] ;
656 -> 658 ;
659 [label="X[2] <= 103.0101\nmse = 0.0521\nsamples = 25\nvalue = 0.5081"] ;
655 -> 659 ;
660 [label="mse = 0.006\nsamples = 3\nvalue = 0.6623"] ;
659 -> 660 ;
661 [label="mse = 0.0547\nsamples = 22\nvalue = 0.4871"] ;
659 -> 661 ;
662 [label="mse = -0.0\nsamples = 1\nvalue = 0.996"] ;
654 -> 662 ;
663 [label="X[1] <= 0.2316\nmse = 0.1433\nsamples = 348\nvalue = 0.6935"] ;
653 -> 663 ;
664 [label="X[1] <= 0.2312\nmse = 0.174\nsamples = 94\nvalue = 0.7801"] ;
663 -> 664 ;
665 [label="X[1] <= 0.2304\nmse = 0.1309\nsamples = 74\nvalue = 0.7149"] ;
664 -> 665 ;
666 [label="mse = 0.1329\nsamples = 52\nvalue = 0.7802"] ;
665 -> 666 ;
667 [label="mse = 0.0922\nsamples = 22\nvalue = 0.5604"] ;
665 -> 667 ;
668 [label="X[2] <= 103.6277\nmse = 0.2597\nsamples = 20\nvalue = 1.0213"] ;
664 -> 668 ;
669 [label="mse = 0.2125\nsamples = 4\nvalue = 1.5701"] ;
668 -> 669 ;
670 [label="mse = 0.1773\nsamples = 16\nvalue = 0.8841"] ;
668 -> 670 ;
671 [label="X[1] <= 0.232\nmse = 0.1282\nsamples = 254\nvalue = 0.6614"] ;
663 -> 671 ;
672 [label="X[2] <= 108.129\nmse = 0.0654\nsamples = 13\nvalue = 0.4923"] ;
671 -> 672 ;
673 [label="mse = 0.0147\nsamples = 8\nvalue = 0.3226"] ;
672 -> 673 ;
674 [label="mse = 0.0266\nsamples = 5\nvalue = 0.764"] ;
672 -> 674 ;
675 [label="X[1] <= 0.232\nmse = 0.1299\nsamples = 241\nvalue = 0.6705"] ;
671 -> 675 ;
676 [label="mse = 0.8019\nsamples = 2\nvalue = 1.5125"] ;
675 -> 676 ;
677 [label="mse = 0.1183\nsamples = 239\nvalue = 0.6635"] ;
675 -> 677 ;
678 [label="X[1] <= 0.2591\nmse = 0.0789\nsamples = 9039\nvalue = 0.2913"] ;
0 -> 678 [labeldistance=2.5, labelangle=-45, headlabel="False"] ;
679 [label="X[1] <= 0.2542\nmse = 0.1009\nsamples = 3245\nvalue = 0.4228"] ;
678 -> 679 ;
680 [label="X[2] <= 89.2363\nmse = 0.1068\nsamples = 2430\nvalue = 0.4457"] ;
679 -> 680 ;
681 [label="X[2] <= 74.4558\nmse = 0.0923\nsamples = 1722\nvalue = 0.4148"] ;
680 -> 681 ;
682 [label="X[2] <= 59.9392\nmse = 0.0386\nsamples = 254\nvalue = 0.343"] ;
681 -> 682 ;
683 [label="X[0] <= 0.0\nmse = 0.003\nsamples = 16\nvalue = 0.1919"] ;
682 -> 683 ;
684 [label="mse = 0.0\nsamples = 1\nvalue = 0.0262"] ;
683 -> 684 ;
685 [label="X[1] <= 0.2457\nmse = 0.0013\nsamples = 15\nvalue = 0.203"] ;
683 -> 685 ;
686 [label="X[2] <= 57.908\nmse = 0.0011\nsamples = 4\nvalue = 0.1786"] ;
685 -> 686 ;
687 [label="X[2] <= 53.3834\nmse = 0.0003\nsamples = 3\nvalue = 0.1611"] ;
686 -> 687 ;
688 [label="X[1] <= 0.2434\nmse = 0.0001\nsamples = 2\nvalue = 0.1498"] ;
687 -> 688 ;
689 [label="mse = 0.0\nsamples = 1\nvalue = 0.158"] ;
688 -> 689 ;
690 [label="mse = -0.0\nsamples = 1\nvalue = 0.1416"] ;
688 -> 690 ;
691 [label="mse = 0.0\nsamples = 1\nvalue = 0.1836"] ;
687 -> 691 ;
692 [label="mse = -0.0\nsamples = 1\nvalue = 0.2313"] ;
686 -> 692 ;
693 [label="X[2] <= 48.9322\nmse = 0.001\nsamples = 11\nvalue = 0.2119"] ;
685 -> 693 ;
694 [label="X[1] <= 0.2481\nmse = 0.0\nsamples = 3\nvalue = 0.2433"] ;
693 -> 694 ;
695 [label="mse = 0.0\nsamples = 1\nvalue = 0.2512"] ;
694 -> 695 ;
696 [label="X[2] <= 43.8558\nmse = 0.0\nsamples = 2\nvalue = 0.2393"] ;
694 -> 696 ;
697 [label="mse = 0.0\nsamples = 1\nvalue = 0.2423"] ;
696 -> 697 ;
698 [label="mse = 0.0\nsamples = 1\nvalue = 0.2362"] ;
696 -> 698 ;
699 [label="X[2] <= 52.8968\nmse = 0.0009\nsamples = 8\nvalue = 0.2001"] ;
693 -> 699 ;
700 [label="X[1] <= 0.2509\nmse = 0.001\nsamples = 2\nvalue = 0.1687"] ;
699 -> 700 ;
701 [label="mse = 0.0\nsamples = 1\nvalue = 0.1363"] ;
700 -> 701 ;
702 [label="mse = 0.0\nsamples = 1\nvalue = 0.2011"] ;
700 -> 702 ;
703 [label="X[0] <= 0.0\nmse = 0.0004\nsamples = 6\nvalue = 0.2105"] ;
699 -> 703 ;
704 [label="mse = 0.0001\nsamples = 5\nvalue = 0.2174"] ;
703 -> 704 ;
705 [label="mse = 0.0\nsamples = 1\nvalue = 0.1762"] ;
703 -> 705 ;
706 [label="X[2] <= 65.0148\nmse = 0.0394\nsamples = 238\nvalue = 0.3531"] ;
682 -> 706 ;
707 [label="X[2] <= 60.6195\nmse = 0.026\nsamples = 21\nvalue = 0.4456"] ;
706 -> 707 ;
708 [label="X[1] <= 0.2504\nmse = 0.0016\nsamples = 3\nvalue = 0.5992"] ;
707 -> 708 ;
709 [label="X[2] <= 60.454\nmse = 0.0002\nsamples = 2\nvalue = 0.6262"] ;
708 -> 709 ;
710 [label="mse = 0.0\nsamples = 1\nvalue = 0.6411"] ;
709 -> 710 ;
711 [label="mse = 0.0\nsamples = 1\nvalue = 0.6113"] ;
709 -> 711 ;
712 [label="mse = -0.0\nsamples = 1\nvalue = 0.5451"] ;
708 -> 712 ;
713 [label="X[1] <= 0.2432\nmse = 0.0255\nsamples = 18\nvalue = 0.42"] ;
707 -> 713 ;
714 [label="X[2] <= 62.0893\nmse = 0.0216\nsamples = 2\nvalue = 0.213"] ;
713 -> 714 ;
715 [label="mse = 0.0\nsamples = 1\nvalue = 0.0661"] ;
714 -> 715 ;
716 [label="mse = 0.0\nsamples = 1\nvalue = 0.3599"] ;
714 -> 716 ;
717 [label="X[2] <= 60.8755\nmse = 0.02\nsamples = 16\nvalue = 0.4458"] ;
713 -> 717 ;
718 [label="X[0] <= 0.0\nmse = 0.0002\nsamples = 2\nvalue = 0.24"] ;
717 -> 718 ;
719 [label="mse = 0.0\nsamples = 1\nvalue = 0.2558"] ;
718 -> 719 ;
720 [label="mse = 0.0\nsamples = 1\nvalue = 0.2243"] ;
718 -> 720 ;
721 [label="X[2] <= 61.2169\nmse = 0.0159\nsamples = 14\nvalue = 0.4752"] ;
717 -> 721 ;
722 [label="mse = 0.0\nsamples = 1\nvalue = 0.7291"] ;
721 -> 722 ;
723 [label="mse = 0.0117\nsamples = 13\nvalue = 0.4557"] ;
721 -> 723 ;
724 [label="X[2] <= 66.362\nmse = 0.0398\nsamples = 217\nvalue = 0.3442"] ;
706 -> 724 ;
725 [label="X[1] <= 0.2462\nmse = 0.0213\nsamples = 15\nvalue = 0.2631"] ;
724 -> 725 ;
726 [label="X[2] <= 66.1341\nmse = 0.0188\nsamples = 7\nvalue = 0.1949"] ;
725 -> 726 ;
727 [label="X[1] <= 0.2437\nmse = 0.0073\nsamples = 4\nvalue = 0.1255"] ;
726 -> 727 ;
728 [label="mse = 0.0\nsamples = 1\nvalue = 0.2302"] ;
727 -> 728 ;
729 [label="mse = 0.0049\nsamples = 3\nvalue = 0.0906"] ;
727 -> 729 ;
730 [label="X[2] <= 66.2502\nmse = 0.0192\nsamples = 3\nvalue = 0.2874"] ;
726 -> 730 ;
731 [label="mse = 0.0\nsamples = 1\nvalue = 0.475"] ;
730 -> 731 ;
732 [label="mse = 0.0024\nsamples = 2\nvalue = 0.1936"] ;
730 -> 732 ;
733 [label="X[2] <= 66.0052\nmse = 0.0159\nsamples = 8\nvalue = 0.3228"] ;
725 -> 733 ;
734 [label="X[2] <= 65.479\nmse = 0.0156\nsamples = 6\nvalue = 0.3574"] ;
733 -> 734 ;
735 [label="mse = 0.0038\nsamples = 4\nvalue = 0.2817"] ;
734 -> 735 ;
736 [label="mse = 0.0048\nsamples = 2\nvalue = 0.5088"] ;
734 -> 736 ;
737 [label="X[1] <= 0.2486\nmse = 0.0026\nsamples = 2\nvalue = 0.219"] ;
733 -> 737 ;
738 [label="mse = 0.0\nsamples = 1\nvalue = 0.2696"] ;
737 -> 738 ;
739 [label="mse = -0.0\nsamples = 1\nvalue = 0.1684"] ;
737 -> 739 ;
740 [label="X[2] <= 67.8816\nmse = 0.0406\nsamples = 202\nvalue = 0.3502"] ;
724 -> 740 ;
741 [label="X[1] <= 0.253\nmse = 0.0468\nsamples = 22\nvalue = 0.4591"] ;
740 -> 741 ;
742 [label="X[1] <= 0.2494\nmse = 0.0373\nsamples = 18\nvalue = 0.421"] ;
741 -> 742 ;
743 [label="mse = 0.0342\nsamples = 14\nvalue = 0.4703"] ;
742 -> 743 ;
744 [label="mse = 0.0098\nsamples = 4\nvalue = 0.2485"] ;
742 -> 744 ;
745 [label="X[1] <= 0.2534\nmse = 0.0539\nsamples = 4\nvalue = 0.6305"] ;
741 -> 745 ;
746 [label="mse = 0.0\nsamples = 1\nvalue = 1.0194"] ;
745 -> 746 ;
747 [label="mse = 0.0046\nsamples = 3\nvalue = 0.5008"] ;
745 -> 747 ;
748 [label="X[1] <= 0.2523\nmse = 0.0382\nsamples = 180\nvalue = 0.3369"] ;
740 -> 748 ;
749 [label="X[1] <= 0.2469\nmse = 0.04\nsamples = 162\nvalue = 0.3456"] ;
748 -> 749 ;
750 [label="mse = 0.0286\nsamples = 82\nvalue = 0.3147"] ;
749 -> 750 ;
751 [label="mse = 0.0496\nsamples = 80\nvalue = 0.3772"] ;
749 -> 751 ;
752 [label="X[1] <= 0.2525\nmse = 0.0158\nsamples = 18\nvalue = 0.2588"] ;
748 -> 752 ;
753 [label="mse = 0.0003\nsamples = 2\nvalue = 0.1275"] ;
752 -> 753 ;
754 [label="mse = 0.0153\nsamples = 16\nvalue = 0.2752"] ;
752 -> 754 ;
755 [label="X[2] <= 74.4703\nmse = 0.1006\nsamples = 1468\nvalue = 0.4273"] ;
681 -> 755 ;
756 [label="mse = 0.0\nsamples = 1\nvalue = 1.4864"] ;
755 -> 756 ;
757 [label="X[1] <= 0.2541\nmse = 0.0999\nsamples = 1467\nvalue = 0.4265"] ;
755 -> 757 ;
758 [label="X[1] <= 0.2499\nmse = 0.0993\nsamples = 1465\nvalue = 0.4256"] ;
757 -> 758 ;
759 [label="X[1] <= 0.2499\nmse = 0.1036\nsamples = 1004\nvalue = 0.4394"] ;
758 -> 759 ;
760 [label="X[2] <= 84.1074\nmse = 0.1028\nsamples = 1003\nvalue = 0.4385"] ;
759 -> 760 ;
761 [label="X[1] <= 0.2481\nmse = 0.099\nsamples = 786\nvalue = 0.4274"] ;
760 -> 761 ;
762 [label="mse = 0.0919\nsamples = 640\nvalue = 0.417"] ;
761 -> 762 ;
763 [label="mse = 0.1274\nsamples = 146\nvalue = 0.4731"] ;
761 -> 763 ;
764 [label="X[2] <= 84.1164\nmse = 0.1147\nsamples = 217\nvalue = 0.4785"] ;
760 -> 764 ;
765 [label="mse = 0.0\nsamples = 1\nvalue = 1.559"] ;
764 -> 765 ;
766 [label="mse = 0.1098\nsamples = 216\nvalue = 0.4735"] ;
764 -> 766 ;
767 [label="mse = -0.0\nsamples = 1\nvalue = 1.3654"] ;
759 -> 767 ;
768 [label="X[2] <= 76.0654\nmse = 0.0887\nsamples = 461\nvalue = 0.3955"] ;
758 -> 768 ;
769 [label="X[2] <= 75.8527\nmse = 0.1687\nsamples = 29\nvalue = 0.5605"] ;
768 -> 769 ;
770 [label="X[2] <= 75.1939\nmse = 0.1298\nsamples = 26\nvalue = 0.4895"] ;
769 -> 770 ;
771 [label="mse = 0.1628\nsamples = 15\nvalue = 0.6247"] ;
770 -> 771 ;
772 [label="mse = 0.0259\nsamples = 11\nvalue = 0.3051"] ;
770 -> 772 ;
773 [label="X[2] <= 76.0254\nmse = 0.083\nsamples = 3\nvalue = 1.1759"] ;
769 -> 773 ;
774 [label="mse = 0.0372\nsamples = 2\nvalue = 1.0054"] ;
773 -> 774 ;
775 [label="mse = 0.0\nsamples = 1\nvalue = 1.517"] ;
773 -> 775 ;
776 [label="X[1] <= 0.2538\nmse = 0.0814\nsamples = 432\nvalue = 0.3844"] ;
768 -> 776 ;
777 [label="X[1] <= 0.2502\nmse = 0.0758\nsamples = 400\nvalue = 0.3731"] ;
776 -> 777 ;
778 [label="mse = 0.0361\nsamples = 30\nvalue = 0.2597"] ;
777 -> 778 ;
779 [label="mse = 0.0779\nsamples = 370\nvalue = 0.3823"] ;
777 -> 779 ;
780 [label="X[1] <= 0.2538\nmse = 0.1295\nsamples = 32\nvalue = 0.5259"] ;
776 -> 780 ;
781 [label="mse = 0.0\nsamples = 1\nvalue = 1.5916"] ;
780 -> 781 ;
782 [label="mse = 0.0959\nsamples = 31\nvalue = 0.4915"] ;
780 -> 782 ;
783 [label="X[1] <= 0.2542\nmse = 0.007\nsamples = 2\nvalue = 1.1254"] ;
757 -> 783 ;
784 [label="mse = 0.0\nsamples = 1\nvalue = 1.2093"] ;
783 -> 784 ;
785 [label="mse = -0.0\nsamples = 1\nvalue = 1.0415"] ;
783 -> 785 ;
786 [label="X[2] <= 89.2783\nmse = 0.1341\nsamples = 708\nvalue = 0.5208"] ;
680 -> 786 ;
787 [label="X[1] <= 0.25\nmse = 0.0032\nsamples = 2\nvalue = 1.8638"] ;
786 -> 787 ;
788 [label="mse = 0.0\nsamples = 1\nvalue = 1.9203"] ;
787 -> 788 ;
789 [label="mse = 0.0\nsamples = 1\nvalue = 1.8072"] ;
787 -> 789 ;
790 [label="X[1] <= 0.2508\nmse = 0.1293\nsamples = 706\nvalue = 0.517"] ;
786 -> 790 ;
791 [label="X[1] <= 0.2508\nmse = 0.138\nsamples = 551\nvalue = 0.5394"] ;
790 -> 791 ;
792 [label="X[1] <= 0.244\nmse = 0.1337\nsamples = 550\nvalue = 0.5365"] ;
791 -> 792 ;
793 [label="X[1] <= 0.2431\nmse = 0.1703\nsamples = 183\nvalue = 0.588"] ;
792 -> 793 ;
794 [label="X[2] <= 106.4328\nmse = 0.0937\nsamples = 110\nvalue = 0.5042"] ;
793 -> 794 ;
795 [label="X[1] <= 0.243\nmse = 0.0886\nsamples = 96\nvalue = 0.4775"] ;
794 -> 795 ;
796 [label="mse = 0.0894\nsamples = 90\nvalue = 0.4939"] ;
795 -> 796 ;
797 [label="mse = 0.0117\nsamples = 6\nvalue = 0.2315"] ;
795 -> 797 ;
798 [label="X[2] <= 107.683\nmse = 0.0901\nsamples = 14\nvalue = 0.6875"] ;
794 -> 798 ;
799 [label="mse = 0.1805\nsamples = 4\nvalue = 0.8772"] ;
798 -> 799 ;
800 [label="mse = 0.0338\nsamples = 10\nvalue = 0.6117"] ;
798 -> 800 ;
801 [label="X[2] <= 106.1616\nmse = 0.2594\nsamples = 73\nvalue = 0.7141"] ;
793 -> 801 ;
802 [label="X[2] <= 89.4292\nmse = 0.207\nsamples = 59\nvalue = 0.6624"] ;
801 -> 802 ;
803 [label="mse = 0.0\nsamples = 1\nvalue = 1.5707"] ;
802 -> 803 ;
804 [label="mse = 0.1961\nsamples = 58\nvalue = 0.6467"] ;
802 -> 804 ;
805 [label="X[2] <= 108.1761\nmse = 0.421\nsamples = 14\nvalue = 0.9323"] ;
801 -> 805 ;
806 [label="mse = 0.551\nsamples = 5\nvalue = 1.5235"] ;
805 -> 806 ;
807 [label="mse = 0.0468\nsamples = 9\nvalue = 0.6039"] ;
805 -> 807 ;
808 [label="X[1] <= 0.2442\nmse = 0.1134\nsamples = 367\nvalue = 0.5108"] ;
792 -> 808 ;
809 [label="X[0] <= 0.0\nmse = 0.016\nsamples = 9\nvalue = 0.2063"] ;
808 -> 809 ;
810 [label="X[1] <= 0.2441\nmse = 0.0037\nsamples = 7\nvalue = 0.1472"] ;
809 -> 810 ;
811 [label="mse = 0.0025\nsamples = 4\nvalue = 0.1066"] ;
810 -> 811 ;
812 [label="mse = 0.0002\nsamples = 3\nvalue = 0.2014"] ;
810 -> 812 ;
813 [label="X[0] <= 0.0\nmse = 0.004\nsamples = 2\nvalue = 0.4131"] ;
809 -> 813 ;
814 [label="mse = 0.0\nsamples = 1\nvalue = 0.35"] ;
813 -> 814 ;
815 [label="mse = 0.0\nsamples = 1\nvalue = 0.4763"] ;
813 -> 815 ;
816 [label="X[1] <= 0.2444\nmse = 0.1134\nsamples = 358\nvalue = 0.5184"] ;
808 -> 816 ;
817 [label="X[1] <= 0.2444\nmse = 0.222\nsamples = 13\nvalue = 0.7489"] ;
816 -> 817 ;
818 [label="mse = 0.0668\nsamples = 12\nvalue = 0.6334"] ;
817 -> 818 ;
819 [label="mse = 0.0\nsamples = 1\nvalue = 2.1359"] ;
817 -> 819 ;
820 [label="X[1] <= 0.2473\nmse = 0.1073\nsamples = 345\nvalue = 0.5098"] ;
816 -> 820 ;
821 [label="mse = 0.0778\nsamples = 162\nvalue = 0.4624"] ;
820 -> 821 ;
822 [label="mse = 0.1297\nsamples = 183\nvalue = 0.5517"] ;
820 -> 822 ;
823 [label="mse = -0.0\nsamples = 1\nvalue = 2.1292"] ;
791 -> 823 ;
824 [label="X[2] <= 94.1418\nmse = 0.0904\nsamples = 155\nvalue = 0.4375"] ;
790 -> 824 ;
825 [label="X[2] <= 93.3618\nmse = 0.1167\nsamples = 43\nvalue = 0.5216"] ;
824 -> 825 ;
826 [label="X[1] <= 0.254\nmse = 0.0633\nsamples = 33\nvalue = 0.4441"] ;
825 -> 826 ;
827 [label="X[2] <= 91.6173\nmse = 0.0552\nsamples = 30\nvalue = 0.408"] ;
826 -> 827 ;
828 [label="X[1] <= 0.2529\nmse = 0.0448\nsamples = 19\nvalue = 0.3375"] ;
827 -> 828 ;
829 [label="mse = 0.0532\nsamples = 11\nvalue = 0.4126"] ;
828 -> 829 ;
830 [label="mse = 0.0149\nsamples = 8\nvalue = 0.2341"] ;
828 -> 830 ;
831 [label="X[2] <= 93.1562\nmse = 0.0496\nsamples = 11\nvalue = 0.5298"] ;
827 -> 831 ;
832 [label="mse = 0.0292\nsamples = 9\nvalue = 0.6053"] ;
831 -> 832 ;
833 [label="mse = 0.0009\nsamples = 2\nvalue = 0.1904"] ;
831 -> 833 ;
834 [label="X[1] <= 0.2541\nmse = 0.0012\nsamples = 3\nvalue = 0.8055"] ;
826 -> 834 ;
835 [label="mse = 0.0\nsamples = 1\nvalue = 0.7585"] ;
834 -> 835 ;
836 [label="X[1] <= 0.2541\nmse = 0.0001\nsamples = 2\nvalue = 0.829"] ;
834 -> 836 ;
837 [label="mse = 0.0\nsamples = 1\nvalue = 0.8407"] ;
836 -> 837 ;
838 [label="mse = 0.0\nsamples = 1\nvalue = 0.8173"] ;
836 -> 838 ;
839 [label="X[2] <= 93.5065\nmse = 0.2077\nsamples = 10\nvalue = 0.7772"] ;
825 -> 839 ;
840 [label="X[1] <= 0.2525\nmse = 0.2071\nsamples = 2\nvalue = 1.4497"] ;
839 -> 840 ;
841 [label="mse = 0.0\nsamples = 1\nvalue = 0.9946"] ;
840 -> 841 ;
842 [label="mse = 0.0\nsamples = 1\nvalue = 1.9048"] ;
840 -> 842 ;
843 [label="X[2] <= 93.5806\nmse = 0.0665\nsamples = 8\nvalue = 0.6091"] ;
839 -> 843 ;
844 [label="mse = 0.0\nsamples = 1\nvalue = 0.0387"] ;
843 -> 844 ;
845 [label="X[2] <= 94.0644\nmse = 0.0229\nsamples = 7\nvalue = 0.6905"] ;
843 -> 845 ;
846 [label="mse = 0.012\nsamples = 6\nvalue = 0.6447"] ;
845 -> 846 ;
847 [label="mse = 0.0\nsamples = 1\nvalue = 0.9656"] ;
845 -> 847 ;
848 [label="X[2] <= 98.0074\nmse = 0.0766\nsamples = 112\nvalue = 0.4052"] ;
824 -> 848 ;
849 [label="X[2] <= 95.4511\nmse = 0.0279\nsamples = 24\nvalue = 0.3128"] ;
848 -> 849 ;
850 [label="X[2] <= 95.4482\nmse = 0.0354\nsamples = 11\nvalue = 0.3685"] ;
849 -> 850 ;
851 [label="X[0] <= 0.0\nmse = 0.022\nsamples = 10\nvalue = 0.3293"] ;
850 -> 851 ;
852 [label="mse = 0.0019\nsamples = 2\nvalue = 0.1619"] ;
851 -> 852 ;
853 [label="mse = 0.0183\nsamples = 8\nvalue = 0.3711"] ;
851 -> 853 ;
854 [label="mse = -0.0\nsamples = 1\nvalue = 0.7605"] ;
850 -> 854 ;
855 [label="X[1] <= 0.2517\nmse = 0.0167\nsamples = 13\nvalue = 0.2657"] ;
849 -> 855 ;
856 [label="X[1] <= 0.2513\nmse = 0.0006\nsamples = 3\nvalue = 0.1587"] ;
855 -> 856 ;
857 [label="mse = 0.0\nsamples = 1\nvalue = 0.1898"] ;
856 -> 857 ;
858 [label="mse = 0.0002\nsamples = 2\nvalue = 0.1431"] ;
856 -> 858 ;
859 [label="X[1] <= 0.2518\nmse = 0.017\nsamples = 10\nvalue = 0.2978"] ;
855 -> 859 ;
860 [label="mse = 0.0\nsamples = 1\nvalue = 0.5533"] ;
859 -> 860 ;
861 [label="mse = 0.0109\nsamples = 9\nvalue = 0.2694"] ;
859 -> 861 ;
862 [label="X[2] <= 98.423\nmse = 0.0869\nsamples = 88\nvalue = 0.4305"] ;
848 -> 862 ;
863 [label="X[2] <= 98.271\nmse = 0.1994\nsamples = 5\nvalue = 0.8541"] ;
862 -> 863 ;
864 [label="X[1] <= 0.2516\nmse = 0.0459\nsamples = 3\nvalue = 0.5822"] ;
863 -> 864 ;
865 [label="mse = 0.0\nsamples = 1\nvalue = 0.3127"] ;
864 -> 865 ;
866 [label="mse = 0.0143\nsamples = 2\nvalue = 0.7169"] ;
864 -> 866 ;
867 [label="X[0] <= 0.0\nmse = 0.1523\nsamples = 2\nvalue = 1.2621"] ;
863 -> 867 ;
868 [label="mse = 0.0\nsamples = 1\nvalue = 1.6524"] ;
867 -> 868 ;
869 [label="mse = 0.0\nsamples = 1\nvalue = 0.8718"] ;
867 -> 869 ;
870 [label="X[1] <= 0.2541\nmse = 0.0686\nsamples = 83\nvalue = 0.4049"] ;
862 -> 870 ;
871 [label="X[1] <= 0.254\nmse = 0.0675\nsamples = 81\nvalue = 0.4132"] ;
870 -> 871 ;
872 [label="mse = 0.0618\nsamples = 79\nvalue = 0.4043"] ;
871 -> 872 ;
873 [label="mse = 0.1642\nsamples = 2\nvalue = 0.7651"] ;
871 -> 873 ;
874 [label="X[1] <= 0.2542\nmse = 0.0004\nsamples = 2\nvalue = 0.0707"] ;
870 -> 874 ;
875 [label="mse = 0.0\nsamples = 1\nvalue = 0.0908"] ;
874 -> 875 ;
876 [label="mse = -0.0\nsamples = 1\nvalue = 0.0507"] ;
874 -> 876 ;
877 [label="X[1] <= 0.2591\nmse = 0.0769\nsamples = 815\nvalue = 0.3544"] ;
679 -> 877 ;
878 [label="X[2] <= 81.8826\nmse = 0.0759\nsamples = 814\nvalue = 0.3532"] ;
877 -> 878 ;
879 [label="X[1] <= 0.2578\nmse = 0.0652\nsamples = 429\nvalue = 0.3337"] ;
878 -> 879 ;
880 [label="X[2] <= 70.7361\nmse = 0.0594\nsamples = 342\nvalue = 0.3173"] ;
879 -> 880 ;
881 [label="X[2] <= 70.6575\nmse = 0.0486\nsamples = 45\nvalue = 0.3698"] ;
880 -> 881 ;
882 [label="X[0] <= 0.0\nmse = 0.0301\nsamples = 44\nvalue = 0.3489"] ;
881 -> 882 ;
883 [label="X[2] <= 70.0161\nmse = 0.0008\nsamples = 3\nvalue = 0.164"] ;
882 -> 883 ;
884 [label="mse = 0.0\nsamples = 1\nvalue = 0.1291"] ;
883 -> 884 ;
885 [label="X[2] <= 70.42\nmse = 0.0002\nsamples = 2\nvalue = 0.1814"] ;
883 -> 885 ;
886 [label="mse = 0.0\nsamples = 1\nvalue = 0.1659"] ;
885 -> 886 ;
887 [label="mse = 0.0\nsamples = 1\nvalue = 0.197"] ;
885 -> 887 ;
888 [label="X[2] <= 70.362\nmse = 0.0296\nsamples = 41\nvalue = 0.3624"] ;
882 -> 888 ;
889 [label="X[2] <= 59.7628\nmse = 0.0158\nsamples = 39\nvalue = 0.3499"] ;
888 -> 889 ;
890 [label="mse = 0.0002\nsamples = 3\nvalue = 0.2377"] ;
889 -> 890 ;
891 [label="mse = 0.016\nsamples = 36\nvalue = 0.3593"] ;
889 -> 891 ;
892 [label="X[2] <= 70.5827\nmse = 0.235\nsamples = 2\nvalue = 0.6065"] ;
888 -> 892 ;
893 [label="mse = 0.0\nsamples = 1\nvalue = 1.0913"] ;
892 -> 893 ;
894 [label="mse = -0.0\nsamples = 1\nvalue = 0.1218"] ;
892 -> 894 ;
895 [label="mse = -0.0\nsamples = 1\nvalue = 1.2883"] ;
881 -> 895 ;
896 [label="X[2] <= 75.4306\nmse = 0.0606\nsamples = 297\nvalue = 0.3094"] ;
880 -> 896 ;
897 [label="X[1] <= 0.2545\nmse = 0.0164\nsamples = 53\nvalue = 0.2394"] ;
896 -> 897 ;
898 [label="X[1] <= 0.2544\nmse = 0.0162\nsamples = 6\nvalue = 0.3655"] ;
897 -> 898 ;
899 [label="X[1] <= 0.2543\nmse = 0.0059\nsamples = 5\nvalue = 0.318"] ;
898 -> 899 ;
900 [label="mse = 0.006\nsamples = 2\nvalue = 0.3897"] ;
899 -> 900 ;
901 [label="mse = 0.0001\nsamples = 3\nvalue = 0.2702"] ;
899 -> 901 ;
902 [label="mse = -0.0\nsamples = 1\nvalue = 0.6027"] ;
898 -> 902 ;
903 [label="X[0] <= 0.0\nmse = 0.0142\nsamples = 47\nvalue = 0.2233"] ;
897 -> 903 ;
904 [label="X[1] <= 0.2577\nmse = 0.0121\nsamples = 43\nvalue = 0.2115"] ;
903 -> 904 ;
905 [label="mse = 0.0111\nsamples = 42\nvalue = 0.206"] ;
904 -> 905 ;
906 [label="mse = 0.0\nsamples = 1\nvalue = 0.4399"] ;
904 -> 906 ;
907 [label="X[1] <= 0.2571\nmse = 0.0192\nsamples = 4\nvalue = 0.3502"] ;
903 -> 907 ;
908 [label="mse = 0.0068\nsamples = 3\nvalue = 0.2817"] ;
907 -> 908 ;
909 [label="mse = 0.0\nsamples = 1\nvalue = 0.5557"] ;
907 -> 909 ;
910 [label="X[2] <= 75.7563\nmse = 0.0689\nsamples = 244\nvalue = 0.3246"] ;
896 -> 910 ;
911 [label="X[2] <= 75.6739\nmse = 0.1826\nsamples = 7\nvalue = 0.6749"] ;
910 -> 911 ;
912 [label="X[1] <= 0.2567\nmse = 0.0566\nsamples = 5\nvalue = 0.4799"] ;
911 -> 912 ;
913 [label="mse = 0.0194\nsamples = 4\nvalue = 0.3787"] ;
912 -> 913 ;
914 [label="mse = -0.0\nsamples = 1\nvalue = 0.8849"] ;
912 -> 914 ;
915 [label="X[1] <= 0.2571\nmse = 0.1652\nsamples = 2\nvalue = 1.1622"] ;
911 -> 915 ;
916 [label="mse = 0.0\nsamples = 1\nvalue = 1.5687"] ;
915 -> 916 ;
917 [label="mse = -0.0\nsamples = 1\nvalue = 0.7558"] ;
915 -> 917 ;
918 [label="X[1] <= 0.2544\nmse = 0.0618\nsamples = 237\nvalue = 0.3143"] ;
910 -> 918 ;
919 [label="X[1] <= 0.2543\nmse = 0.0094\nsamples = 11\nvalue = 0.2078"] ;
918 -> 919 ;
920 [label="mse = 0.0105\nsamples = 6\nvalue = 0.2567"] ;
919 -> 920 ;
921 [label="mse = 0.0017\nsamples = 5\nvalue = 0.1491"] ;
919 -> 921 ;
922 [label="X[1] <= 0.2544\nmse = 0.0637\nsamples = 226\nvalue = 0.3194"] ;
918 -> 922 ;
923 [label="mse = 0.0\nsamples = 1\nvalue = 0.7293"] ;
922 -> 923 ;
924 [label="mse = 0.0633\nsamples = 225\nvalue = 0.3176"] ;
922 -> 924 ;
925 [label="X[1] <= 0.2578\nmse = 0.0829\nsamples = 87\nvalue = 0.3978"] ;
879 -> 925 ;
926 [label="mse = 0.0\nsamples = 1\nvalue = 1.503"] ;
925 -> 926 ;
927 [label="X[1] <= 0.2579\nmse = 0.0695\nsamples = 86\nvalue = 0.3849"] ;
925 -> 927 ;
928 [label="X[1] <= 0.2579\nmse = 0.1161\nsamples = 6\nvalue = 0.673"] ;
927 -> 928 ;
929 [label="X[2] <= 74.7417\nmse = 0.0377\nsamples = 4\nvalue = 0.5235"] ;
928 -> 929 ;
930 [label="X[1] <= 0.2578\nmse = 0.0042\nsamples = 2\nvalue = 0.3816"] ;
929 -> 930 ;
931 [label="mse = 0.0\nsamples = 1\nvalue = 0.4463"] ;
930 -> 931 ;
932 [label="mse = 0.0\nsamples = 1\nvalue = 0.317"] ;
930 -> 932 ;
933 [label="X[2] <= 77.9091\nmse = 0.0309\nsamples = 2\nvalue = 0.6654"] ;
929 -> 933 ;
934 [label="mse = 0.0\nsamples = 1\nvalue = 0.8413"] ;
933 -> 934 ;
935 [label="mse = -0.0\nsamples = 1\nvalue = 0.4895"] ;
933 -> 935 ;
936 [label="X[1] <= 0.2579\nmse = 0.1389\nsamples = 2\nvalue = 0.9719"] ;
928 -> 936 ;
937 [label="mse = 0.0\nsamples = 1\nvalue = 1.3446"] ;
936 -> 937 ;
938 [label="mse = 0.0\nsamples = 1\nvalue = 0.5993"] ;
936 -> 938 ;
939 [label="X[1] <= 0.2583\nmse = 0.0593\nsamples = 80\nvalue = 0.3633"] ;
927 -> 939 ;
940 [label="X[2] <= 77.3997\nmse = 0.0362\nsamples = 35\nvalue = 0.2832"] ;
939 -> 940 ;
941 [label="X[2] <= 75.9588\nmse = 0.0441\nsamples = 11\nvalue = 0.3673"] ;
940 -> 941 ;
942 [label="mse = 0.0368\nsamples = 10\nvalue = 0.3348"] ;
941 -> 942 ;
943 [label="mse = 0.0\nsamples = 1\nvalue = 0.6926"] ;
941 -> 943 ;
944 [label="X[0] <= 0.0\nmse = 0.0279\nsamples = 24\nvalue = 0.2446"] ;
940 -> 944 ;
945 [label="mse = 0.0172\nsamples = 22\nvalue = 0.2153"] ;
944 -> 945 ;
946 [label="mse = 0.0314\nsamples = 2\nvalue = 0.5676"] ;
944 -> 946 ;
947 [label="X[2] <= 76.1644\nmse = 0.0684\nsamples = 45\nvalue = 0.4256"] ;
939 -> 947 ;
948 [label="X[2] <= 67.2006\nmse = 0.0289\nsamples = 19\nvalue = 0.3495"] ;
947 -> 948 ;
949 [label="mse = 0.002\nsamples = 4\nvalue = 0.5703"] ;
948 -> 949 ;
950 [label="mse = 0.0196\nsamples = 15\nvalue = 0.2906"] ;
948 -> 950 ;
951 [label="X[2] <= 77.7021\nmse = 0.0899\nsamples = 26\nvalue = 0.4813"] ;
947 -> 951 ;
952 [label="mse = 0.069\nsamples = 6\nvalue = 0.7341"] ;
951 -> 952 ;
953 [label="mse = 0.0712\nsamples = 20\nvalue = 0.4055"] ;
951 -> 953 ;
954 [label="X[2] <= 81.8941\nmse = 0.087\nsamples = 385\nvalue = 0.375"] ;
878 -> 954 ;
955 [label="mse = 0.0\nsamples = 1\nvalue = 1.451"] ;
954 -> 955 ;
956 [label="X[1] <= 0.2544\nmse = 0.0842\nsamples = 384\nvalue = 0.3722"] ;
954 -> 956 ;
957 [label="X[1] <= 0.2542\nmse = 0.0449\nsamples = 14\nvalue = 0.521"] ;
956 -> 957 ;
958 [label="X[2] <= 92.8528\nmse = 0.0005\nsamples = 2\nvalue = 0.2555"] ;
957 -> 958 ;
959 [label="mse = 0.0\nsamples = 1\nvalue = 0.2328"] ;
958 -> 959 ;
960 [label="mse = -0.0\nsamples = 1\nvalue = 0.2782"] ;
958 -> 960 ;
961 [label="X[2] <= 98.0787\nmse = 0.0386\nsamples = 12\nvalue = 0.5653"] ;
957 -> 961 ;
962 [label="X[1] <= 0.2543\nmse = 0.0291\nsamples = 7\nvalue = 0.6415"] ;
961 -> 962 ;
963 [label="X[0] <= 0.0\nmse = 0.0006\nsamples = 2\nvalue = 0.8189"] ;
962 -> 963 ;
964 [label="mse = 0.0\nsamples = 1\nvalue = 0.7947"] ;
963 -> 964 ;
965 [label="mse = -0.0\nsamples = 1\nvalue = 0.843"] ;
963 -> 965 ;
966 [label="X[1] <= 0.2543\nmse = 0.0229\nsamples = 5\nvalue = 0.5705"] ;
962 -> 966 ;
967 [label="mse = 0.0248\nsamples = 2\nvalue = 0.4394"] ;
966 -> 967 ;
968 [label="mse = 0.0026\nsamples = 3\nvalue = 0.658"] ;
966 -> 968 ;
969 [label="X[2] <= 102.3392\nmse = 0.0323\nsamples = 5\nvalue = 0.4586"] ;
961 -> 969 ;
970 [label="mse = 0.0\nsamples = 1\nvalue = 0.1744"] ;
969 -> 970 ;
971 [label="X[2] <= 105.3674\nmse = 0.0152\nsamples = 4\nvalue = 0.5297"] ;
969 -> 971 ;
972 [label="mse = 0.0026\nsamples = 2\nvalue = 0.6298"] ;
971 -> 972 ;
973 [label="mse = 0.0077\nsamples = 2\nvalue = 0.4296"] ;
971 -> 973 ;
974 [label="X[2] <= 112.339\nmse = 0.0848\nsamples = 370\nvalue = 0.3666"] ;
956 -> 974 ;
975 [label="X[1] <= 0.2545\nmse = 0.0853\nsamples = 363\nvalue = 0.3629"] ;
974 -> 975 ;
976 [label="X[2] <= 88.3722\nmse = 0.0003\nsamples = 4\nvalue = 0.1181"] ;
975 -> 976 ;
977 [label="X[1] <= 0.2545\nmse = 0.0001\nsamples = 3\nvalue = 0.1092"] ;
976 -> 977 ;
978 [label="mse = 0.0\nsamples = 2\nvalue = 0.1165"] ;
977 -> 978 ;
979 [label="mse = -0.0\nsamples = 1\nvalue = 0.0947"] ;
977 -> 979 ;
980 [label="mse = 0.0\nsamples = 1\nvalue = 0.1447"] ;
976 -> 980 ;
981 [label="X[2] <= 90.3736\nmse = 0.0856\nsamples = 359\nvalue = 0.3656"] ;
975 -> 981 ;
982 [label="X[2] <= 89.8247\nmse = 0.0957\nsamples = 168\nvalue = 0.395"] ;
981 -> 982 ;
983 [label="mse = 0.0888\nsamples = 163\nvalue = 0.3803"] ;
982 -> 983 ;
984 [label="mse = 0.0859\nsamples = 5\nvalue = 0.874"] ;
982 -> 984 ;
985 [label="X[2] <= 94.9704\nmse = 0.0752\nsamples = 191\nvalue = 0.3398"] ;
981 -> 985 ;
986 [label="mse = 0.034\nsamples = 56\nvalue = 0.2654"] ;
985 -> 986 ;
987 [label="mse = 0.0891\nsamples = 135\nvalue = 0.3706"] ;
985 -> 987 ;
988 [label="X[0] <= 0.0\nmse = 0.0238\nsamples = 7\nvalue = 0.5587"] ;
974 -> 988 ;
989 [label="X[1] <= 0.2573\nmse = 0.0191\nsamples = 4\nvalue = 0.6437"] ;
988 -> 989 ;
990 [label="X[2] <= 115.0173\nmse = 0.0004\nsamples = 3\nvalue = 0.7228"] ;
989 -> 990 ;
991 [label="mse = 0.0\nsamples = 2\nvalue = 0.7088"] ;
990 -> 991 ;
992 [label="mse = -0.0\nsamples = 1\nvalue = 0.7508"] ;
990 -> 992 ;
993 [label="mse = 0.0\nsamples = 1\nvalue = 0.4064"] ;
989 -> 993 ;
994 [label="X[2] <= 112.691\nmse = 0.0078\nsamples = 3\nvalue = 0.4454"] ;
988 -> 994 ;
995 [label="mse = 0.0\nsamples = 1\nvalue = 0.5689"] ;
994 -> 995 ;
996 [label="X[1] <= 0.2559\nmse = 0.0002\nsamples = 2\nvalue = 0.3837"] ;
994 -> 996 ;
997 [label="mse = 0.0\nsamples = 1\nvalue = 0.3692"] ;
996 -> 997 ;
998 [label="mse = -0.0\nsamples = 1\nvalue = 0.3982"] ;
996 -> 998 ;
999 [label="mse = 0.0\nsamples = 1\nvalue = 1.2819"] ;
877 -> 999 ;
1000 [label="X[1] <= 0.2687\nmse = 0.0516\nsamples = 5794\nvalue = 0.2176"] ;
678 -> 1000 ;
1001 [label="X[1] <= 0.2659\nmse = 0.057\nsamples = 1404\nvalue = 0.2902"] ;
1000 -> 1001 ;
1002 [label="X[2] <= 112.4484\nmse = 0.0601\nsamples = 1010\nvalue = 0.3052"] ;
1001 -> 1002 ;
1003 [label="X[2] <= 102.2187\nmse = 0.0595\nsamples = 1004\nvalue = 0.3036"] ;
1002 -> 1003 ;
1004 [label="X[2] <= 84.578\nmse = 0.0598\nsamples = 885\nvalue = 0.3108"] ;
1003 -> 1004 ;
1005 [label="X[2] <= 74.8155\nmse = 0.0572\nsamples = 615\nvalue = 0.295"] ;
1004 -> 1005 ;
1006 [label="X[1] <= 0.2658\nmse = 0.0616\nsamples = 113\nvalue = 0.3568"] ;
1005 -> 1006 ;
1007 [label="X[2] <= 74.691\nmse = 0.054\nsamples = 112\nvalue = 0.3483"] ;
1006 -> 1007 ;
1008 [label="X[2] <= 72.0867\nmse = 0.0434\nsamples = 110\nvalue = 0.3374"] ;
1007 -> 1008 ;
1009 [label="mse = 0.0217\nsamples = 69\nvalue = 0.3057"] ;
1008 -> 1009 ;
1010 [label="mse = 0.0755\nsamples = 41\nvalue = 0.3909"] ;
1008 -> 1010 ;
1011 [label="X[2] <= 74.7476\nmse = 0.2722\nsamples = 2\nvalue = 0.9449"] ;
1007 -> 1011 ;
1012 [label="mse = 0.0\nsamples = 1\nvalue = 1.4666"] ;
1011 -> 1012 ;
1013 [label="mse = 0.0\nsamples = 1\nvalue = 0.4232"] ;
1011 -> 1013 ;
1014 [label="mse = 0.0\nsamples = 1\nvalue = 1.3055"] ;
1006 -> 1014 ;
1015 [label="X[1] <= 0.2612\nmse = 0.0551\nsamples = 502\nvalue = 0.2811"] ;
1005 -> 1015 ;
1016 [label="X[1] <= 0.2597\nmse = 0.0368\nsamples = 179\nvalue = 0.2432"] ;
1015 -> 1016 ;
1017 [label="X[1] <= 0.2593\nmse = 0.0644\nsamples = 56\nvalue = 0.3101"] ;
1016 -> 1017 ;
1018 [label="mse = 0.01\nsamples = 19\nvalue = 0.2049"] ;
1017 -> 1018 ;
1019 [label="mse = 0.0837\nsamples = 37\nvalue = 0.3641"] ;
1017 -> 1019 ;
1020 [label="X[0] <= 0.0\nmse = 0.0213\nsamples = 123\nvalue = 0.2127"] ;
1016 -> 1020 ;
1021 [label="mse = 0.0199\nsamples = 121\nvalue = 0.2074"] ;
1020 -> 1021 ;
1022 [label="mse = 0.0\nsamples = 2\nvalue = 0.5373"] ;
1020 -> 1022 ;
1023 [label="X[1] <= 0.2612\nmse = 0.064\nsamples = 323\nvalue = 0.3022"] ;
1015 -> 1023 ;
1024 [label="mse = 0.0\nsamples = 1\nvalue = 1.644"] ;
1023 -> 1024 ;
1025 [label="X[1] <= 0.2614\nmse = 0.0586\nsamples = 322\nvalue = 0.298"] ;
1023 -> 1025 ;
1026 [label="mse = 0.0587\nsamples = 11\nvalue = 0.4434"] ;
1025 -> 1026 ;
1027 [label="mse = 0.0578\nsamples = 311\nvalue = 0.2928"] ;
1025 -> 1027 ;
1028 [label="X[2] <= 84.5936\nmse = 0.0641\nsamples = 270\nvalue = 0.3468"] ;
1004 -> 1028 ;
1029 [label="mse = 0.0\nsamples = 1\nvalue = 1.5678"] ;
1028 -> 1029 ;
1030 [label="X[1] <= 0.2596\nmse = 0.0588\nsamples = 269\nvalue = 0.3422"] ;
1028 -> 1030 ;
1031 [label="X[1] <= 0.2592\nmse = 0.0255\nsamples = 26\nvalue = 0.2477"] ;
1030 -> 1031 ;
1032 [label="X[1] <= 0.2591\nmse = 0.0002\nsamples = 2\nvalue = 0.5412"] ;
1031 -> 1032 ;
1033 [label="mse = 0.0\nsamples = 1\nvalue = 0.5569"] ;
1032 -> 1033 ;
1034 [label="mse = -0.0\nsamples = 1\nvalue = 0.5255"] ;
1032 -> 1034 ;
1035 [label="X[2] <= 93.9062\nmse = 0.0199\nsamples = 24\nvalue = 0.2232"] ;
1031 -> 1035 ;
1036 [label="mse = 0.0198\nsamples = 17\nvalue = 0.2579"] ;
1035 -> 1036 ;
1037 [label="mse = 0.01\nsamples = 7\nvalue = 0.139"] ;
1035 -> 1037 ;
1038 [label="X[2] <= 87.9157\nmse = 0.0613\nsamples = 243\nvalue = 0.3523"] ;
1030 -> 1038 ;
1039 [label="X[2] <= 87.7724\nmse = 0.0897\nsamples = 75\nvalue = 0.3919"] ;
1038 -> 1039 ;
1040 [label="mse = 0.0759\nsamples = 72\nvalue = 0.3733"] ;
1039 -> 1040 ;
1041 [label="mse = 0.211\nsamples = 3\nvalue = 0.8403"] ;
1039 -> 1041 ;
1042 [label="X[1] <= 0.265\nmse = 0.0476\nsamples = 168\nvalue = 0.3346"] ;
1038 -> 1042 ;
1043 [label="mse = 0.0364\nsamples = 140\nvalue = 0.3201"] ;
1042 -> 1043 ;
1044 [label="mse = 0.0972\nsamples = 28\nvalue = 0.4072"] ;
1042 -> 1044 ;
1045 [label="X[1] <= 0.2642\nmse = 0.0534\nsamples = 119\nvalue = 0.2502"] ;
1003 -> 1045 ;
1046 [label="X[1] <= 0.2639\nmse = 0.0592\nsamples = 90\nvalue = 0.2839"] ;
1045 -> 1046 ;
1047 [label="X[1] <= 0.263\nmse = 0.0533\nsamples = 85\nvalue = 0.2636"] ;
1046 -> 1047 ;
1048 [label="X[1] <= 0.2613\nmse = 0.054\nsamples = 73\nvalue = 0.2865"] ;
1047 -> 1048 ;
1049 [label="X[2] <= 110.127\nmse = 0.0463\nsamples = 36\nvalue = 0.2128"] ;
1048 -> 1049 ;
1050 [label="mse = 0.05\nsamples = 30\nvalue = 0.2432"] ;
1049 -> 1050 ;
1051 [label="mse = 0.0005\nsamples = 6\nvalue = 0.0607"] ;
1049 -> 1051 ;
1052 [label="X[2] <= 108.2868\nmse = 0.0509\nsamples = 37\nvalue = 0.3583"] ;
1048 -> 1052 ;
1053 [label="mse = 0.054\nsamples = 26\nvalue = 0.3175"] ;
1052 -> 1053 ;
1054 [label="mse = 0.0305\nsamples = 11\nvalue = 0.4548"] ;
1052 -> 1054 ;
1055 [label="X[0] <= 0.0\nmse = 0.0265\nsamples = 12\nvalue = 0.1238"] ;
1047 -> 1055 ;
1056 [label="X[1] <= 0.2638\nmse = 0.0004\nsamples = 10\nvalue = 0.0522"] ;
1055 -> 1056 ;
1057 [label="mse = 0.0001\nsamples = 9\nvalue = 0.046"] ;
1056 -> 1057 ;
1058 [label="mse = -0.0\nsamples = 1\nvalue = 0.1075"] ;
1056 -> 1058 ;
1059 [label="X[1] <= 0.2638\nmse = 0.0029\nsamples = 2\nvalue = 0.4819"] ;
1055 -> 1059 ;
1060 [label="mse = 0.0\nsamples = 1\nvalue = 0.5358"] ;
1059 -> 1060 ;
1061 [label="mse = 0.0\nsamples = 1\nvalue = 0.428"] ;
1059 -> 1061 ;
1062 [label="X[0] <= 0.0\nmse = 0.0335\nsamples = 5\nvalue = 0.6294"] ;
1046 -> 1062 ;
1063 [label="X[2] <= 107.8674\nmse = 0.007\nsamples = 3\nvalue = 0.7568"] ;
1062 -> 1063 ;
1064 [label="mse = 0.0\nsamples = 1\nvalue = 0.872"] ;
1063 -> 1064 ;
1065 [label="X[2] <= 109.4092\nmse = 0.0005\nsamples = 2\nvalue = 0.6992"] ;
1063 -> 1065 ;
1066 [label="mse = 0.0\nsamples = 1\nvalue = 0.7222"] ;
1065 -> 1066 ;
1067 [label="mse = 0.0\nsamples = 1\nvalue = 0.6763"] ;
1065 -> 1067 ;
1068 [label="X[2] <= 109.0396\nmse = 0.0124\nsamples = 2\nvalue = 0.4384"] ;
1062 -> 1068 ;
1069 [label="mse = 0.0\nsamples = 1\nvalue = 0.3271"] ;
1068 -> 1069 ;
1070 [label="mse = 0.0\nsamples = 1\nvalue = 0.5496"] ;
1068 -> 1070 ;
1071 [label="X[0] <= 0.0\nmse = 0.0208\nsamples = 29\nvalue = 0.1455"] ;
1045 -> 1071 ;
1072 [label="X[1] <= 0.2645\nmse = 0.0187\nsamples = 27\nvalue = 0.13"] ;
1071 -> 1072 ;
1073 [label="X[1] <= 0.2644\nmse = 0.0298\nsamples = 7\nvalue = 0.1961"] ;
1072 -> 1073 ;
1074 [label="X[1] <= 0.2644\nmse = 0.0045\nsamples = 5\nvalue = 0.1004"] ;
1073 -> 1074 ;
1075 [label="mse = 0.0013\nsamples = 2\nvalue = 0.163"] ;
1074 -> 1075 ;
1076 [label="mse = 0.0022\nsamples = 3\nvalue = 0.0586"] ;
1074 -> 1076 ;
1077 [label="X[2] <= 106.7736\nmse = 0.0129\nsamples = 2\nvalue = 0.4355"] ;
1073 -> 1077 ;
1078 [label="mse = 0.0\nsamples = 1\nvalue = 0.3221"] ;
1077 -> 1078 ;
1079 [label="mse = 0.0\nsamples = 1\nvalue = 0.549"] ;
1077 -> 1079 ;
1080 [label="X[2] <= 110.0773\nmse = 0.0127\nsamples = 20\nvalue = 0.1069"] ;
1072 -> 1080 ;
1081 [label="X[1] <= 0.2653\nmse = 0.0068\nsamples = 16\nvalue = 0.091"] ;
1080 -> 1081 ;
1082 [label="mse = 0.0013\nsamples = 10\nvalue = 0.0565"] ;
1081 -> 1082 ;
1083 [label="mse = 0.0106\nsamples = 6\nvalue = 0.1486"] ;
1081 -> 1083 ;
1084 [label="X[1] <= 0.265\nmse = 0.0316\nsamples = 4\nvalue = 0.1704"] ;
1080 -> 1084 ;
1085 [label="mse = 0.0\nsamples = 1\nvalue = 0.4672"] ;
1084 -> 1085 ;
1086 [label="mse = 0.003\nsamples = 3\nvalue = 0.0715"] ;
1084 -> 1086 ;
1087 [label="X[2] <= 103.6399\nmse = 0.0023\nsamples = 2\nvalue = 0.3541"] ;
1071 -> 1087 ;
1088 [label="mse = 0.0\nsamples = 1\nvalue = 0.3061"] ;
1087 -> 1088 ;
1089 [label="mse = 0.0\nsamples = 1\nvalue = 0.402"] ;
1087 -> 1089 ;
1090 [label="X[1] <= 0.2606\nmse = 0.0947\nsamples = 6\nvalue = 0.5638"] ;
1002 -> 1090 ;
1091 [label="mse = 0.0\nsamples = 1\nvalue = 0.0529"] ;
1090 -> 1091 ;
1092 [label="X[2] <= 113.4314\nmse = 0.051\nsamples = 5\nvalue = 0.666"] ;
1090 -> 1092 ;
1093 [label="X[2] <= 112.8742\nmse = 0.0002\nsamples = 2\nvalue = 0.9055"] ;
1092 -> 1093 ;
1094 [label="mse = 0.0\nsamples = 1\nvalue = 0.9201"] ;
1093 -> 1094 ;
1095 [label="mse = 0.0\nsamples = 1\nvalue = 0.8908"] ;
1093 -> 1095 ;
1096 [label="X[2] <= 114.021\nmse = 0.0211\nsamples = 3\nvalue = 0.5064"] ;
1092 -> 1096 ;
1097 [label="mse = 0.0\nsamples = 1\nvalue = 0.3173"] ;
1096 -> 1097 ;
1098 [label="X[0] <= 0.0\nmse = 0.0048\nsamples = 2\nvalue = 0.6009"] ;
1096 -> 1098 ;
1099 [label="mse = 0.0\nsamples = 1\nvalue = 0.6701"] ;
1098 -> 1099 ;
1100 [label="mse = 0.0\nsamples = 1\nvalue = 0.5317"] ;
1098 -> 1100 ;
1101 [label="X[2] <= 74.7259\nmse = 0.0472\nsamples = 394\nvalue = 0.2519"] ;
1001 -> 1101 ;
1102 [label="X[2] <= 74.4108\nmse = 0.0782\nsamples = 52\nvalue = 0.35"] ;
1101 -> 1102 ;
1103 [label="X[1] <= 0.2677\nmse = 0.0442\nsamples = 48\nvalue = 0.3104"] ;
1102 -> 1103 ;
1104 [label="X[2] <= 72.5866\nmse = 0.0549\nsamples = 28\nvalue = 0.3575"] ;
1103 -> 1104 ;
1105 [label="X[1] <= 0.2674\nmse = 0.0215\nsamples = 20\nvalue = 0.291"] ;
1104 -> 1105 ;
1106 [label="X[1] <= 0.2662\nmse = 0.0188\nsamples = 18\nvalue = 0.2684"] ;
1105 -> 1106 ;
1107 [label="X[1] <= 0.266\nmse = 0.0013\nsamples = 3\nvalue = 0.1348"] ;
1106 -> 1107 ;
1108 [label="mse = 0.0\nsamples = 1\nvalue = 0.0876"] ;
1107 -> 1108 ;
1109 [label="mse = 0.0003\nsamples = 2\nvalue = 0.1584"] ;
1107 -> 1109 ;
1110 [label="X[1] <= 0.2669\nmse = 0.018\nsamples = 15\nvalue = 0.2951"] ;
1106 -> 1110 ;
1111 [label="mse = 0.0129\nsamples = 9\nvalue = 0.3532"] ;
1110 -> 1111 ;
1112 [label="mse = 0.0131\nsamples = 6\nvalue = 0.208"] ;
1110 -> 1112 ;
1113 [label="X[2] <= 69.8149\nmse = 0.0002\nsamples = 2\nvalue = 0.4945"] ;
1105 -> 1113 ;
1114 [label="mse = 0.0\nsamples = 1\nvalue = 0.4798"] ;
1113 -> 1114 ;
1115 [label="mse = 0.0\nsamples = 1\nvalue = 0.5091"] ;
1113 -> 1115 ;
1116 [label="X[1] <= 0.2663\nmse = 0.0994\nsamples = 8\nvalue = 0.5239"] ;
1104 -> 1116 ;
1117 [label="X[2] <= 73.9604\nmse = 0.0067\nsamples = 2\nvalue = 0.1674"] ;
1116 -> 1117 ;
1118 [label="mse = 0.0\nsamples = 1\nvalue = 0.0858"] ;
1117 -> 1118 ;
1119 [label="mse = 0.0\nsamples = 1\nvalue = 0.249"] ;
1117 -> 1119 ;
1120 [label="X[2] <= 73.6034\nmse = 0.0738\nsamples = 6\nvalue = 0.6427"] ;
1116 -> 1120 ;
1121 [label="X[2] <= 73.072\nmse = 0.0067\nsamples = 2\nvalue = 0.8276"] ;
1120 -> 1121 ;
1122 [label="mse = 0.0\nsamples = 1\nvalue = 0.7459"] ;
1121 -> 1122 ;
1123 [label="mse = 0.0\nsamples = 1\nvalue = 0.9092"] ;
1121 -> 1123 ;
1124 [label="X[2] <= 73.7656\nmse = 0.0818\nsamples = 4\nvalue = 0.5502"] ;
1120 -> 1124 ;
1125 [label="mse = 0.0\nsamples = 1\nvalue = 0.0827"] ;
1124 -> 1125 ;
1126 [label="mse = 0.0119\nsamples = 3\nvalue = 0.7061"] ;
1124 -> 1126 ;
1127 [label="X[0] <= 0.0\nmse = 0.0217\nsamples = 20\nvalue = 0.2443"] ;
1103 -> 1127 ;
1128 [label="X[2] <= 72.1545\nmse = 0.0168\nsamples = 17\nvalue = 0.2203"] ;
1127 -> 1128 ;
1129 [label="X[2] <= 66.8755\nmse = 0.0151\nsamples = 12\nvalue = 0.266"] ;
1128 -> 1129 ;
1130 [label="X[2] <= 65.4729\nmse = 0.0\nsamples = 2\nvalue = 0.1206"] ;
1129 -> 1130 ;
1131 [label="mse = 0.0\nsamples = 1\nvalue = 0.1215"] ;
1130 -> 1131 ;
1132 [label="mse = 0.0\nsamples = 1\nvalue = 0.1197"] ;
1130 -> 1132 ;
1133 [label="X[2] <= 68.6251\nmse = 0.013\nsamples = 10\nvalue = 0.2951"] ;
1129 -> 1133 ;
1134 [label="mse = 0.0014\nsamples = 2\nvalue = 0.4404"] ;
1133 -> 1134 ;
1135 [label="mse = 0.0094\nsamples = 8\nvalue = 0.2587"] ;
1133 -> 1135 ;
1136 [label="X[1] <= 0.2677\nmse = 0.0037\nsamples = 5\nvalue = 0.1107"] ;
1128 -> 1136 ;
1137 [label="mse = 0.0\nsamples = 1\nvalue = 0.2192"] ;
1136 -> 1137 ;
1138 [label="X[1] <= 0.2685\nmse = 0.001\nsamples = 4\nvalue = 0.0836"] ;
1136 -> 1138 ;
1139 [label="mse = 0.0\nsamples = 3\nvalue = 0.0655"] ;
1138 -> 1139 ;
1140 [label="mse = 0.0\nsamples = 1\nvalue = 0.1378"] ;
1138 -> 1140 ;
1141 [label="X[1] <= 0.2682\nmse = 0.028\nsamples = 3\nvalue = 0.3803"] ;
1127 -> 1141 ;
1142 [label="X[1] <= 0.2679\nmse = 0.0005\nsamples = 2\nvalue = 0.2625"] ;
1141 -> 1142 ;
1143 [label="mse = 0.0\nsamples = 1\nvalue = 0.2406"] ;
1142 -> 1143 ;
1144 [label="mse = 0.0\nsamples = 1\nvalue = 0.2845"] ;
1142 -> 1144 ;
1145 [label="mse = -0.0\nsamples = 1\nvalue = 0.6158"] ;
1141 -> 1145 ;
1146 [label="X[0] <= 0.0\nmse = 0.2418\nsamples = 4\nvalue = 0.8254"] ;
1102 -> 1146 ;
1147 [label="X[2] <= 74.668\nmse = 0.0633\nsamples = 3\nvalue = 0.5708"] ;
1146 -> 1147 ;
1148 [label="mse = 0.0\nsamples = 1\nvalue = 0.2417"] ;
1147 -> 1148 ;
1149 [label="X[1] <= 0.2676\nmse = 0.0137\nsamples = 2\nvalue = 0.7354"] ;
1147 -> 1149 ;
1150 [label="mse = 0.0\nsamples = 1\nvalue = 0.6185"] ;
1149 -> 1150 ;
1151 [label="mse = -0.0\nsamples = 1\nvalue = 0.8523"] ;
1149 -> 1151 ;
1152 [label="mse = 0.0\nsamples = 1\nvalue = 1.5891"] ;
1146 -> 1152 ;
1153 [label="X[1] <= 0.2679\nmse = 0.0408\nsamples = 342\nvalue = 0.237"] ;
1101 -> 1153 ;
1154 [label="X[0] <= 0.0\nmse = 0.0277\nsamples = 258\nvalue = 0.2161"] ;
1153 -> 1154 ;
1155 [label="X[2] <= 110.9537\nmse = 0.0263\nsamples = 254\nvalue = 0.2112"] ;
1154 -> 1155 ;
1156 [label="X[2] <= 106.7762\nmse = 0.0254\nsamples = 244\nvalue = 0.2064"] ;
1155 -> 1156 ;
1157 [label="X[1] <= 0.2659\nmse = 0.0261\nsamples = 218\nvalue = 0.2199"] ;
1156 -> 1157 ;
1158 [label="X[0] <= 0.0\nmse = 0.0036\nsamples = 10\nvalue = 0.104"] ;
1157 -> 1158 ;
1159 [label="mse = 0.0017\nsamples = 9\nvalue = 0.0887"] ;
1158 -> 1159 ;
1160 [label="mse = -0.0\nsamples = 1\nvalue = 0.2416"] ;
1158 -> 1160 ;
1161 [label="X[1] <= 0.2659\nmse = 0.0265\nsamples = 208\nvalue = 0.2255"] ;
1157 -> 1161 ;
1162 [label="mse = 0.0\nsamples = 1\nvalue = 0.5774"] ;
1161 -> 1162 ;
1163 [label="mse = 0.026\nsamples = 207\nvalue = 0.2238"] ;
1161 -> 1163 ;
1164 [label="X[0] <= 0.0\nmse = 0.0049\nsamples = 26\nvalue = 0.0932"] ;
1156 -> 1164 ;
1165 [label="X[1] <= 0.2664\nmse = 0.0032\nsamples = 23\nvalue = 0.0822"] ;
1164 -> 1165 ;
1166 [label="mse = 0.0031\nsamples = 8\nvalue = 0.1149"] ;
1165 -> 1166 ;
1167 [label="mse = 0.0023\nsamples = 15\nvalue = 0.0648"] ;
1165 -> 1167 ;
1168 [label="X[2] <= 107.5198\nmse = 0.0101\nsamples = 3\nvalue = 0.1772"] ;
1164 -> 1168 ;
1169 [label="mse = 0.0\nsamples = 1\nvalue = 0.2951"] ;
1168 -> 1169 ;
1170 [label="mse = 0.0047\nsamples = 2\nvalue = 0.1182"] ;
1168 -> 1170 ;
1171 [label="X[1] <= 0.2664\nmse = 0.034\nsamples = 10\nvalue = 0.3279"] ;
1155 -> 1171 ;
1172 [label="X[2] <= 112.8225\nmse = 0.0028\nsamples = 2\nvalue = 0.5731"] ;
1171 -> 1172 ;
1173 [label="mse = 0.0\nsamples = 1\nvalue = 0.6261"] ;
1172 -> 1173 ;
1174 [label="mse = 0.0\nsamples = 1\nvalue = 0.5201"] ;
1172 -> 1174 ;
1175 [label="X[2] <= 111.7837\nmse = 0.023\nsamples = 8\nvalue = 0.2666"] ;
1171 -> 1175 ;
1176 [label="X[1] <= 0.2671\nmse = 0.0096\nsamples = 4\nvalue = 0.3827"] ;
1175 -> 1176 ;
1177 [label="mse = 0.0005\nsamples = 3\nvalue = 0.3275"] ;
1176 -> 1177 ;
1178 [label="mse = -0.0\nsamples = 1\nvalue = 0.5485"] ;
1176 -> 1178 ;
1179 [label="X[0] <= 0.0\nmse = 0.0095\nsamples = 4\nvalue = 0.1505"] ;
1175 -> 1179 ;
1180 [label="mse = 0.0025\nsamples = 3\nvalue = 0.1"] ;
1179 -> 1180 ;
1181 [label="mse = 0.0\nsamples = 1\nvalue = 0.3019"] ;
1179 -> 1181 ;
1182 [label="X[1] <= 0.2675\nmse = 0.0201\nsamples = 4\nvalue = 0.5303"] ;
1154 -> 1182 ;
1183 [label="X[2] <= 78.7648\nmse = 0.0014\nsamples = 3\nvalue = 0.6101"] ;
1182 -> 1183 ;
1184 [label="mse = 0.0\nsamples = 1\nvalue = 0.5607"] ;
1183 -> 1184 ;
1185 [label="X[2] <= 81.2825\nmse = 0.0002\nsamples = 2\nvalue = 0.6348"] ;
1183 -> 1185 ;
1186 [label="mse = 0.0\nsamples = 1\nvalue = 0.6499"] ;
1185 -> 1186 ;
1187 [label="mse = 0.0\nsamples = 1\nvalue = 0.6196"] ;
1185 -> 1187 ;
1188 [label="mse = -0.0\nsamples = 1\nvalue = 0.2911"] ;
1182 -> 1188 ;
1189 [label="X[1] <= 0.2681\nmse = 0.0754\nsamples = 84\nvalue = 0.3011"] ;
1153 -> 1189 ;
1190 [label="X[2] <= 75.5266\nmse = 0.1081\nsamples = 20\nvalue = 0.4279"] ;
1189 -> 1190 ;
1191 [label="X[0] <= 0.0\nmse = 0.0037\nsamples = 3\nvalue = 0.1383"] ;
1190 -> 1191 ;
1192 [label="mse = 0.0\nsamples = 1\nvalue = 0.0541"] ;
1191 -> 1192 ;
1193 [label="X[1] <= 0.268\nmse = 0.0002\nsamples = 2\nvalue = 0.1803"] ;
1191 -> 1193 ;
1194 [label="mse = 0.0\nsamples = 1\nvalue = 0.1663"] ;
1193 -> 1194 ;
1195 [label="mse = -0.0\nsamples = 1\nvalue = 0.1944"] ;
1193 -> 1195 ;
1196 [label="X[2] <= 77.5836\nmse = 0.1091\nsamples = 17\nvalue = 0.4791"] ;
1190 -> 1196 ;
1197 [label="X[2] <= 76.6838\nmse = 0.0188\nsamples = 2\nvalue = 0.7872"] ;
1196 -> 1197 ;
1198 [label="mse = 0.0\nsamples = 1\nvalue = 0.9244"] ;
1197 -> 1198 ;
1199 [label="mse = -0.0\nsamples = 1\nvalue = 0.65"] ;
1197 -> 1199 ;
1200 [label="X[1] <= 0.268\nmse = 0.1068\nsamples = 15\nvalue = 0.438"] ;
1196 -> 1200 ;
1201 [label="X[2] <= 78.327\nmse = 0.0184\nsamples = 9\nvalue = 0.322"] ;
1200 -> 1201 ;
1202 [label="mse = 0.0\nsamples = 1\nvalue = 0.5307"] ;
1201 -> 1202 ;
1203 [label="mse = 0.0146\nsamples = 8\nvalue = 0.296"] ;
1201 -> 1203 ;
1204 [label="X[1] <= 0.268\nmse = 0.1889\nsamples = 6\nvalue = 0.6119"] ;
1200 -> 1204 ;
1205 [label="mse = 0.0\nsamples = 1\nvalue = 1.5142"] ;
1204 -> 1205 ;
1206 [label="mse = 0.0313\nsamples = 5\nvalue = 0.4315"] ;
1204 -> 1206 ;
1207 [label="X[2] <= 78.0559\nmse = 0.0586\nsamples = 64\nvalue = 0.2615"] ;
1189 -> 1207 ;
1208 [label="X[2] <= 77.6937\nmse = 0.2231\nsamples = 8\nvalue = 0.4395"] ;
1207 -> 1208 ;
1209 [label="X[1] <= 0.2683\nmse = 0.0996\nsamples = 7\nvalue = 0.3001"] ;
1208 -> 1209 ;
1210 [label="mse = 0.0\nsamples = 1\nvalue = 1.0504"] ;
1209 -> 1210 ;
1211 [label="X[0] <= 0.0\nmse = 0.0067\nsamples = 6\nvalue = 0.175"] ;
1209 -> 1211 ;
1212 [label="mse = 0.0\nsamples = 1\nvalue = 0.0385"] ;
1211 -> 1212 ;
1213 [label="mse = 0.0036\nsamples = 5\nvalue = 0.2023"] ;
1211 -> 1213 ;
1214 [label="mse = -0.0\nsamples = 1\nvalue = 1.4152"] ;
1208 -> 1214 ;
1215 [label="X[2] <= 111.9213\nmse = 0.03\nsamples = 56\nvalue = 0.236"] ;
1207 -> 1215 ;
1216 [label="X[1] <= 0.2687\nmse = 0.0243\nsamples = 54\nvalue = 0.2216"] ;
1215 -> 1216 ;
1217 [label="X[2] <= 110.143\nmse = 0.0215\nsamples = 50\nvalue = 0.2079"] ;
1216 -> 1217 ;
1218 [label="mse = 0.0212\nsamples = 46\nvalue = 0.22"] ;
1217 -> 1218 ;
1219 [label="mse = 0.0039\nsamples = 4\nvalue = 0.069"] ;
1217 -> 1219 ;
1220 [label="X[0] <= 0.0\nmse = 0.0275\nsamples = 4\nvalue = 0.3926"] ;
1216 -> 1220 ;
1221 [label="mse = 0.0\nsamples = 1\nvalue = 0.1884"] ;
1220 -> 1221 ;
1222 [label="mse = 0.0181\nsamples = 3\nvalue = 0.4607"] ;
1220 -> 1222 ;
1223 [label="X[1] <= 0.2685\nmse = 0.0244\nsamples = 2\nvalue = 0.6262"] ;
1215 -> 1223 ;
1224 [label="mse = 0.0\nsamples = 1\nvalue = 0.4699"] ;
1223 -> 1224 ;
1225 [label="mse = -0.0\nsamples = 1\nvalue = 0.7824"] ;
1223 -> 1225 ;
1226 [label="X[1] <= 0.3238\nmse = 0.0476\nsamples = 4390\nvalue = 0.1944"] ;
1000 -> 1226 ;
1227 [label="X[2] <= 76.2686\nmse = 0.0501\nsamples = 4008\nvalue = 0.2034"] ;
1226 -> 1227 ;
1228 [label="X[1] <= 0.3222\nmse = 0.0551\nsamples = 412\nvalue = 0.2642"] ;
1227 -> 1228 ;
1229 [label="X[1] <= 0.3018\nmse = 0.0474\nsamples = 409\nvalue = 0.2585"] ;
1228 -> 1229 ;
1230 [label="X[2] <= 66.0905\nmse = 0.0334\nsamples = 353\nvalue = 0.2419"] ;
1229 -> 1230 ;
1231 [label="X[1] <= 0.2816\nmse = 0.0148\nsamples = 24\nvalue = 0.3653"] ;
1230 -> 1231 ;
1232 [label="X[2] <= 64.6393\nmse = 0.0162\nsamples = 16\nvalue = 0.335"] ;
1231 -> 1232 ;
1233 [label="X[1] <= 0.2755\nmse = 0.0128\nsamples = 12\nvalue = 0.376"] ;
1232 -> 1233 ;
1234 [label="mse = 0.0102\nsamples = 7\nvalue = 0.3337"] ;
1233 -> 1234 ;
1235 [label="mse = 0.0103\nsamples = 5\nvalue = 0.4352"] ;
1233 -> 1235 ;
1236 [label="X[0] <= 0.0\nmse = 0.0062\nsamples = 4\nvalue = 0.212"] ;
1232 -> 1236 ;
1237 [label="mse = 0.0\nsamples = 1\nvalue = 0.3158"] ;
1236 -> 1237 ;
1238 [label="mse = 0.0035\nsamples = 3\nvalue = 0.1774"] ;
1236 -> 1238 ;
1239 [label="X[2] <= 65.8931\nmse = 0.0065\nsamples = 8\nvalue = 0.4259"] ;
1231 -> 1239 ;
1240 [label="X[1] <= 0.2877\nmse = 0.0066\nsamples = 6\nvalue = 0.4487"] ;
1239 -> 1240 ;
1241 [label="mse = 0.0061\nsamples = 4\nvalue = 0.4147"] ;
1240 -> 1241 ;
1242 [label="mse = 0.0008\nsamples = 2\nvalue = 0.5167"] ;
1240 -> 1242 ;
1243 [label="X[1] <= 0.289\nmse = 0.0\nsamples = 2\nvalue = 0.3575"] ;
1239 -> 1243 ;
1244 [label="mse = 0.0\nsamples = 1\nvalue = 0.3592"] ;
1243 -> 1244 ;
1245 [label="mse = 0.0\nsamples = 1\nvalue = 0.3557"] ;
1243 -> 1245 ;
1246 [label="X[2] <= 76.0631\nmse = 0.0336\nsamples = 329\nvalue = 0.2328"] ;
1230 -> 1246 ;
1247 [label="X[1] <= 0.2722\nmse = 0.0302\nsamples = 315\nvalue = 0.2273"] ;
1246 -> 1247 ;
1248 [label="X[0] <= 0.0\nmse = 0.0198\nsamples = 73\nvalue = 0.256"] ;
1247 -> 1248 ;
1249 [label="mse = 0.0137\nsamples = 62\nvalue = 0.2256"] ;
1248 -> 1249 ;
1250 [label="mse = 0.0195\nsamples = 11\nvalue = 0.4271"] ;
1248 -> 1250 ;
1251 [label="X[1] <= 0.2778\nmse = 0.033\nsamples = 242\nvalue = 0.2187"] ;
1247 -> 1251 ;
1252 [label="mse = 0.0139\nsamples = 90\nvalue = 0.1882"] ;
1251 -> 1252 ;
1253 [label="mse = 0.0434\nsamples = 152\nvalue = 0.2367"] ;
1251 -> 1253 ;
1254 [label="X[2] <= 76.0879\nmse = 0.0933\nsamples = 14\nvalue = 0.3573"] ;
1246 -> 1254 ;
1255 [label="mse = 0.0\nsamples = 1\nvalue = 1.2193"] ;
1254 -> 1255 ;
1256 [label="X[2] <= 76.2443\nmse = 0.0389\nsamples = 13\nvalue = 0.291"] ;
1254 -> 1256 ;
1257 [label="mse = 0.0173\nsamples = 10\nvalue = 0.2467"] ;
1256 -> 1257 ;
